{"conv1.weight": {"__ndarray__": [[[[0.04724080488085747, 0.06317482143640518, 0.12892864644527435, 0.10989513248205185, -0.010063028894364834], [-0.026240849867463112, 0.09969630092382431, -0.0011080264812335372, 0.023072386160492897, 0.017081905156373978], [0.12103152275085449, 0.15165217220783234, 0.033287834376096725, -0.19223220646381378, 0.1721992939710617], [-0.0037092685233801603, -0.12223388999700546, -0.023917341604828835, -0.12355098873376846, -0.1815847009420395], [0.03592045232653618, 0.1821829080581665, 0.03238332271575928, -0.009343457408249378, 0.1767839938402176]]], [[[0.13418690860271454, -0.14899562299251556, -0.08515184372663498, 0.11255805939435959, -0.15609602630138397], [-0.03482234477996826, -0.09042511135339737, -0.003681611968204379, 0.025336910039186478, 0.12635409832000732], [-0.03107481077313423, 0.18120698630809784, 0.0251863244920969, -0.09655516594648361, -0.008483695797622204], [0.057781364768743515, -0.14694853127002716, 0.10413873195648193, -0.023859238252043724, -0.17720642685890198], [-0.11952173709869385, 0.07029678672552109, 0.04884927347302437, 0.009908747859299183, -0.056029584258794785]]], [[[0.018717264756560326, 0.19921675324440002, -0.019066691398620605, 0.035359907895326614, 0.18986372649669647], [-0.001533246017061174, 0.02199568785727024, -0.05188024044036865, 0.1454329937696457, -0.026276374235749245], [0.18727687001228333, -0.04232156276702881, -0.0978950783610344, 0.11477849632501602, -0.16397559642791748], [0.11397333443164825, 0.06090562418103218, 0.08561749756336212, -0.09474366158246994, -0.11656780540943146], [-0.06232917308807373, -0.16293282806873322, -0.044585682451725006, 0.07344692200422287, -0.08733280003070831]]], [[[-0.12005352973937988, 0.13127604126930237, -0.03243434429168701, 0.15719524025917053, 0.038202691823244095], [-0.047829773277044296, -0.13927534222602844, 0.197292760014534, 0.11500287055969238, 0.0753803476691246], [0.050986599177122116, 0.16636624932289124, 0.13864532113075256, 0.10267815738916397, 0.14751990139484406], [0.1772298365831375, -0.08477652072906494, -0.1173713207244873, 0.19808712601661682, 0.029273224994540215], [-0.053194310516119, -0.1887221783399582, -0.15797479450702667, 0.09782009571790695, 0.028970910236239433]]], [[[0.01569356955587864, -0.18742302060127258, 0.18637359142303467, 0.00573344249278307, -0.025804901495575905], [-0.09719154983758926, 0.024768639355897903, 0.10920601338148117, -0.022905422374606133, -0.16901376843452454], [-0.03157305717468262, -0.16782870888710022, -0.07925762981176376, 0.04077973589301109, 0.08369710296392441], [0.014705086126923561, -0.06449177116155624, -0.05063846334815025, 0.09238598495721817, 0.009663867764174938], [0.054032277315855026, -0.10417366027832031, 0.04926357418298721, 0.044817280024290085, -0.12468530982732773]]], [[[-0.15086376667022705, 0.02161390893161297, -0.1202445775270462, -0.025624537840485573, 0.18747158348560333], [-0.013912463560700417, -0.16423006355762482, 0.08364491909742355, 0.19173358380794525, -0.03461642190814018], [0.14516006410121918, -0.07756481319665909, 0.16397397220134735, -0.18744292855262756, 0.01142046507447958], [0.007126712705940008, 0.13562650978565216, -0.079747274518013, -0.12073784321546555, 0.08764846622943878], [0.06260421127080917, -0.1358497440814972, -0.0636262446641922, -0.08772652596235275, 0.026946187019348145]]]], "dtype": "float32", "shape": [6, 1, 5, 5], "Corder": true}, "conv1.bias": {"__ndarray__": [-0.025237679481506348, -0.07589204609394073, 0.03744404390454292, -0.0787857323884964, 0.14758096635341644, -0.03381915017962456], "dtype": "float32", "shape": [6]}, "conv2.weight": {"__ndarray__": [[[[0.050784654915332794, -0.06440950930118561, 0.05323166027665138, 0.004434526432305574, -0.033857136964797974], [-0.013828161172568798, -0.0454346165060997, -0.045993294566869736, 0.025006841868162155, 0.07355987280607224], [-0.03538089245557785, -0.06513746827840805, -0.02552296593785286, -0.009455343708395958, 0.06661084294319153], [-0.07359335571527481, -0.03453247994184494, 0.025553392246365547, 0.019995806738734245, -0.012181084603071213], [0.06430763751268387, 0.05891243368387222, 0.07732175290584564, 0.05733781307935715, -0.06861815601587296]], [[0.0017671763198450208, 0.053919240832328796, -0.07157589495182037, -0.07245500385761261, -0.07538402825593948], [-0.009638088755309582, 0.009582345373928547, -0.08067115396261215, -0.07039275020360947, 0.03222804144024849], [-0.06965214014053345, -0.07460067421197891, -0.013247758150100708, 0.005914431065320969, -0.04410478100180626], [-0.007142289541661739, 0.04440630227327347, -0.06964070349931717, 0.0020657191053032875, -0.07880032807588577], [0.0017425994155928493, -0.0511217936873436, 0.01546661276370287, -0.0601811520755291, -0.011800265870988369]], [[-0.07960430532693863, 0.07897468656301498, 0.0803486779332161, -0.01775350421667099, 0.04450489208102226], [0.059825144708156586, 0.07686058431863785, -0.0002129472850356251, 0.06293588876724243, -0.042828869074583054], [0.016100559383630753, -0.07941333204507828, -0.015547254122793674, -0.07471372187137604, -6.340335676213726e-05], [-0.0281131099909544, 0.0735621228814125, -0.022783003747463226, -0.014882579445838928, 0.07851731032133102], [0.027611304074525833, 0.0072121755219995975, 0.07492987811565399, 0.04126283526420593, -0.07688374817371368]], [[0.04204412177205086, 0.024942416697740555, -0.07028496265411377, 0.060410160571336746, -0.07753011584281921], [-0.06431659311056137, 0.04155268520116806, -0.05402906984090805, -0.04675711318850517, -0.004014072939753532], [-0.0020032695028930902, -0.031880635768175125, 0.05547633022069931, 0.045517660677433014, 0.034564875066280365], [0.00904582068324089, -0.019615357741713524, -0.03411601856350899, -0.04422014206647873, 0.05144428089261055], [-0.05978423357009888, -0.007941528223454952, 0.061821989715099335, 0.07214516401290894, 0.07452386617660522]], [[0.013354008086025715, -0.07866811752319336, -0.07038801908493042, -0.003130153752863407, 0.011133167892694473], [0.013156683184206486, -0.07861374318599701, 0.057849984616041183, -0.07471348345279694, -0.040024444460868835], [-0.08015573769807816, -0.06678489595651627, -0.06624646484851837, -0.07466679811477661, -0.06976881623268127], [-0.005635637324303389, -0.04125161096453667, 0.002903404412791133, 0.0708765834569931, 0.010079148225486279], [-0.050932642072439194, 0.03371965512633324, 0.054639238864183426, -0.029824309051036835, -0.06045810505747795]], [[-0.06129736080765724, -0.03902101889252663, -0.011718738824129105, -0.06110132858157158, -0.03736107423901558], [0.03294365108013153, -0.06214838847517967, 0.04167831316590309, 0.03581554815173149, 0.0008920951513573527], [-0.04848119989037514, 0.013574586249887943, -0.07147588580846786, -0.04434354975819588, -0.004018676932901144], [-0.05908839404582977, 0.07523409277200699, -0.023090481758117676, 0.046308986842632294, -0.018486760556697845], [0.07483143359422684, -0.044688884168863297, -0.014536995440721512, 0.06855367869138718, 0.04359737038612366]]], [[[0.045045193284749985, -0.05600179731845856, -0.07185646146535873, -0.028160346671938896, -0.043387897312641144], [0.0060149384662508965, 0.06224355101585388, 0.06858520209789276, -0.08001309633255005, 0.040303509682416916], [0.025598233565688133, 0.05644635111093521, 0.048191435635089874, -0.07871310412883759, 0.004969980102032423], [-0.03832317143678665, -0.035009779036045074, -0.02443586103618145, -0.07470797747373581, -0.05494285374879837], [-0.01550946943461895, -0.03422471880912781, -0.03302082419395447, -0.0581534244120121, 0.03132561966776848]], [[0.06429097056388855, 0.00035694317193701863, -0.025233455002307892, -0.01177423819899559, -0.07589247077703476], [-0.015821103006601334, -0.07736475765705109, 0.04161365330219269, -0.08030137419700623, 0.04199077561497688], [0.016060564666986465, 0.05936561897397041, 0.05175020918250084, 0.036260936409235, 0.03161664679646492], [0.00996455643326044, -0.019132161512970924, -0.07335769385099411, 0.007161484099924564, 0.05270076543092728], [-0.02577664703130722, 0.001031302148476243, 0.027497882023453712, -0.017947304993867874, -0.0054686707444489]], [[0.04027023911476135, -0.009512770920991898, -0.008354175835847855, -0.052023377269506454, -0.002369838999584317], [0.01043330691754818, 0.050810955464839935, 0.07618463039398193, -0.0631687119603157, 0.027018209919333458], [-0.039479851722717285, 0.0800565555691719, -0.0760795846581459, 0.019702022895216942, -0.011836736463010311], [0.08012400567531586, 0.01177949458360672, -0.01534283347427845, -0.0027156472206115723, 0.024453867226839066], [0.04679466411471367, -0.022028889507055283, 0.021156445145606995, -0.0001522400852991268, 0.045762136578559875]], [[0.014355710707604885, 0.04664584994316101, 0.05219423770904541, 0.03972556069493294, 0.02675463818013668], [0.0733775794506073, -0.08123591542243958, -0.04841429367661476, -0.06267666071653366, -0.052404411137104034], [-0.011293983086943626, -0.03986143693327904, 0.04657192528247833, -0.035774726420640945, -0.047465547919273376], [-0.05744420737028122, -0.04751947149634361, 0.04806764796376228, 0.05965251103043556, -0.000995463808067143], [0.07547922432422638, -0.004902887623757124, 0.036663930863142014, -0.06825006008148193, -0.07962340861558914]], [[0.02428094483911991, -0.015381776727735996, -0.038311395794153214, -0.030326299369335175, -0.08002796769142151], [0.033479366451501846, 0.012094525620341301, -0.020660927519202232, 0.036694131791591644, 0.04817014932632446], [-0.014313721098005772, 0.019815368577837944, 0.05601070448756218, -0.027208829298615456, -0.0038177696987986565], [0.05515933409333229, -0.03590380772948265, -0.006886067800223827, 0.02356543205678463, 0.04899594187736511], [0.010508663021028042, -0.06724711507558823, -0.04943985119462013, 0.041174475103616714, 0.0733073279261589]], [[-0.02967221476137638, -0.0010026957606896758, 0.04729416221380234, -0.0031135291792452335, -0.018360089510679245], [-0.01154328417032957, 0.019877964630723, 0.007618428207933903, 0.04005719721317291, -0.029178420081734657], [0.018104353919625282, 0.06788532435894012, 0.06998591870069504, -0.014695455320179462, 0.07164229452610016], [0.04779878258705139, -0.03258555755019188, -0.07054504752159119, 0.002850659191608429, -0.001256377319805324], [0.006291610188782215, -0.005308790132403374, 0.036423467099666595, -0.00934011023491621, 0.031472522765398026]]], [[[0.023242995142936707, -0.0342690572142601, 0.028043126687407494, 0.030309908092021942, -0.03522392362356186], [0.044907767325639725, -0.01309636514633894, 0.07333210855722427, 0.03462185338139534, 0.08149983733892441], [-0.002663184190168977, 0.003564652753993869, -0.010312330909073353, -0.04305761307477951, 0.0034607097040861845], [-0.006351548247039318, 0.005172356963157654, 0.002277420600876212, -0.034124311059713364, 0.07430091500282288], [0.08048591017723083, 0.04901786893606186, -0.02069954015314579, 0.058056749403476715, -0.02894330956041813]], [[-0.044052064418792725, -0.0454774834215641, -0.01860988698899746, 0.0750603973865509, -0.07595296949148178], [-0.03805088996887207, -0.02885061874985695, 0.051001906394958496, -0.006906605325639248, -0.06777334213256836], [0.07971708476543427, 0.0010617774678394198, -0.04526476934552193, 0.07691846042871475, 0.07689454406499863], [-0.01847846619784832, -0.0043816836550831795, -0.025647250935435295, -0.028215650469064713, -0.04460719972848892], [-0.03892742097377777, 0.03096260130405426, -0.02207544445991516, -0.057889025658369064, -0.0654236301779747]], [[-0.04918462410569191, 0.051409464329481125, 0.05344909802079201, 0.04036678746342659, 0.06642165035009384], [0.011952612549066544, 0.04228302836418152, -0.044283874332904816, 0.03248675540089607, -0.018083952367305756], [-0.01771293580532074, 0.025930531322956085, -0.03674841672182083, 0.00019279915431980044, 0.044195838272571564], [0.009366020560264587, 0.07895244657993317, 0.08058811724185944, -0.024551689624786377, 0.014964768663048744], [-0.020703988149762154, -0.07119404524564743, -0.03676038607954979, -0.06039130687713623, 0.002085575135424733]], [[0.02781926840543747, 0.0475081130862236, -0.03725752979516983, -0.04509567841887474, 0.03903862461447716], [0.07225537300109863, -0.020359309390187263, 0.05208815261721611, -0.012642652727663517, 0.04058774560689926], [-0.06096941977739334, 0.05232769250869751, 0.007856117561459541, 0.0194378774613142, 0.08049353957176208], [0.028948722407221794, -0.047382209450006485, 0.018073061481118202, 0.02186509594321251, -0.03528377413749695], [0.06444457918405533, 0.021450374275445938, -0.08052115142345428, 0.02759985812008381, 0.05470455065369606]], [[-0.028747163712978363, 0.07653770595788956, 0.04551035165786743, 0.0034538281615823507, -0.04589642584323883], [0.027607858180999756, -0.08085299283266068, 0.05307379737496376, 0.07153277844190598, 0.014372821897268295], [-0.016240185126662254, -0.04247615113854408, 0.0714319571852684, -0.007021293975412846, 0.041957058012485504], [-0.016658281907439232, -0.08009366691112518, 0.07750638574361801, 0.033543508499860764, -0.08083049207925797], [0.03484216704964638, 0.07883086055517197, -0.008319670334458351, -0.003913390450179577, -0.023324783891439438]], [[-0.014553464017808437, 0.028075547888875008, 0.07449870556592941, -0.054139476269483566, 0.047098636627197266], [0.033994436264038086, 0.03147400543093681, 0.01733199879527092, -0.041128747165203094, -0.02534327656030655], [0.02037559449672699, -0.0645131766796112, 0.019915271550416946, -0.05944530665874481, -0.01978449337184429], [0.003054768545553088, 0.06508496403694153, 0.015989938750863075, 0.040335725992918015, -0.07584993541240692], [0.03609223663806915, -0.017307734116911888, 0.014361472800374031, -0.001361059956252575, 0.05408179759979248]]], [[[-0.015947764739394188, 0.038159649819135666, -0.05230268836021423, 0.003355705877766013, 0.007974952459335327], [-0.039324767887592316, 0.010500360280275345, -0.0034566314425319433, 0.07154380530118942, -0.009929525665938854], [-0.07828006893396378, -0.006040040869265795, 0.07354140281677246, 0.050863973796367645, 0.027741119265556335], [0.041602782905101776, 0.016997111961245537, -0.0005076356464996934, 0.00494758365675807, 0.047687090933322906], [0.002976862480863929, -0.01212899200618267, -0.03841501474380493, -0.07557183504104614, 0.01744057610630989]], [[-0.012402617372572422, 0.05231945961713791, -0.005198072642087936, -0.0427074171602726, -0.07799257338047028], [-0.0379071943461895, -0.01919107884168625, -0.04149145260453224, -0.0390881784260273, -0.06291355192661285], [0.02737862803041935, -0.0009714515181258321, 0.002078946679830551, -0.031748611479997635, 0.06124619022011757], [0.05780360475182533, -0.025409502908587456, 0.06077797710895538, -0.045000769197940826, 0.008946219459176064], [-0.039873506873846054, 0.07790640741586685, 0.06618811935186386, 0.03336438536643982, 0.028923794627189636]], [[0.05593569576740265, 0.0737818256020546, -0.07878521084785461, 0.01019873283803463, 0.05643463134765625], [-0.06452856212854385, -0.053169045597314835, 0.07342173904180527, 0.032294850796461105, 0.009008114226162434], [-0.040445346385240555, -0.07605160772800446, 0.08151324838399887, -0.03732048720121384, -0.07901062816381454], [0.044380176812410355, -0.06378861516714096, -0.04529250040650368, 0.05671123415231705, 0.032354485243558884], [0.001994237070903182, -0.07972973585128784, 0.014621257781982422, -0.0704573541879654, 0.0646369680762291]], [[-0.042217087000608444, 0.06584028899669647, 0.06029259040951729, -0.02308393083512783, 0.06994586437940598], [-0.036917153745889664, 0.06160251051187515, -0.03525993600487709, 0.04174740985035896, 0.058252546936273575], [-0.016727769747376442, -0.03972539305686951, -0.04730691388249397, -0.010068217292428017, -0.038991086184978485], [-0.013004958629608154, -0.03672351688146591, 0.01907733455300331, -0.013072323054075241, 0.04134266823530197], [-0.01126763503998518, -0.022437848150730133, -0.08079617470502853, 0.040996283292770386, 0.012721162289381027]], [[0.030378421768546104, 0.0370892770588398, 0.048601340502500534, 0.05584346503019333, -0.0426243394613266], [-0.035033661872148514, 0.019818075001239777, -0.027584441006183624, 0.07991931587457657, 0.0031667998991906643], [-0.018468227237462997, 0.0664985403418541, -0.07925315946340561, 0.04951641336083412, 0.0647098571062088], [0.08117422461509705, 0.03271026164293289, 0.05684807524085045, -0.07276411354541779, 0.06305436044931412], [-0.030095579102635384, 0.04710756242275238, -0.0724596232175827, 0.03502490371465683, -0.06134386360645294]], [[0.007816015742719173, -0.08064136654138565, -0.06069394573569298, 0.006411535199731588, -0.016727827489376068], [0.04407201707363129, -0.02369517832994461, 0.004136460367590189, -0.04323102533817291, -0.027634382247924805], [0.009634974412620068, -0.041072241961956024, -0.0026198511477559805, -0.012347467243671417, 0.04397479072213173], [-0.0408255010843277, 0.004613621160387993, 0.001168358139693737, 0.04671667143702507, -0.03156112879514694], [-0.0808955729007721, 0.0763620138168335, 0.07896845787763596, -0.06214278191328049, -0.00886772945523262]]], [[[-0.07222724705934525, 0.021917851641774178, 0.07915955781936646, -0.06053024157881737, 0.040228523313999176], [0.036634769290685654, -0.01098158024251461, 0.030354848131537437, -0.07614695280790329, -0.04154378920793533], [-0.018972815945744514, -0.01950765773653984, 0.06257080286741257, 0.01321379840373993, 0.04666164889931679], [0.06915050745010376, -0.06957618147134781, -0.06662394106388092, -0.035683657974004745, -0.0011462050024420023], [0.0321953147649765, 0.0033204806968569756, 0.07670054584741592, -0.004714955575764179, 0.060278233140707016]], [[-0.049704812467098236, 0.05980542302131653, -0.008402589708566666, 0.03039185330271721, -0.03690702095627785], [-0.06332633644342422, 0.03040364198386669, -0.06089799851179123, 0.049101002514362335, -0.0331774465739727], [0.03138556703925133, -0.012972741387784481, 0.027069231495261192, -0.03398960828781128, -0.028331361711025238], [-0.046791452914476395, 0.02784844860434532, 0.05534011125564575, -0.005066554993391037, 0.026960549876093864], [0.06848903000354767, 0.007105779834091663, 0.03227920085191727, -0.01510879397392273, -0.03961129114031792]], [[0.006583583075553179, -0.033477332442998886, -0.06414537876844406, -0.04685044661164284, 0.05413799732923508], [0.04615696147084236, -0.023320239037275314, -0.046946972608566284, 0.07119029015302658, -0.050727784633636475], [0.02535642683506012, 0.017042752355337143, 0.05040861666202545, -0.0663229376077652, 0.0605878122150898], [0.01560424268245697, 0.061419639736413956, 0.08075305074453354, 0.03478372097015381, 0.07413074374198914], [0.02042909897863865, -0.03150463476777077, 0.06550034880638123, 0.0336555615067482, 0.008768312633037567]], [[0.018130440264940262, 0.0035589488688856363, -0.028667893260717392, 0.07159056514501572, 0.0778205394744873], [0.009899274446070194, -0.03270549327135086, -0.0020613097585737705, 0.0008053510682657361, 0.028339440003037453], [-0.07298284769058228, 0.024748362600803375, 0.007095403969287872, -0.048124607652425766, -0.0028816796839237213], [0.002042816486209631, 0.019712155684828758, 0.05860341712832451, -0.021944560110569, 0.043383605778217316], [0.05357928201556206, -0.04150041565299034, 0.002380691934376955, 0.031203201040625572, -0.057472582906484604]], [[0.055350225418806076, -0.018803825601935387, -0.045202914625406265, -0.032047953456640244, 0.07492121309041977], [-0.0401482991874218, -0.011423680931329727, 0.060267068445682526, 0.07308342307806015, -0.05916290357708931], [-0.05303044244647026, -0.033610183745622635, -0.06345163285732269, -0.07506543397903442, 0.019066695123910904], [0.03629836067557335, -0.0638362318277359, 0.007855757139623165, -0.0213560089468956, 0.023548126220703125], [0.08068787306547165, -0.03508199006319046, -0.010975759476423264, 0.07943045347929001, -0.03956422954797745]], [[0.0520118810236454, 0.02705838903784752, 0.0536331944167614, -0.04380723088979721, 0.08037509024143219], [0.0003836321411654353, 0.0018907904159277678, 0.06543576717376709, 0.033633239567279816, -0.025411156937479973], [0.03490975871682167, -0.029107600450515747, 0.03478352352976799, -0.043447282165288925, 0.039178814738988876], [0.008857703767716885, 0.025395067408680916, 0.03443501144647598, -0.07005640864372253, -0.02376561053097248], [0.07028613239526749, 0.0447034053504467, 0.020322216674685478, 0.07784140110015869, -0.03465381637215614]]], [[[-0.012550759129226208, 0.05001545697450638, 0.08039897680282593, -0.00847841240465641, -0.021690886467695236], [0.0777260959148407, -0.05886903032660484, 0.008690590970218182, -0.02943134307861328, 0.02219928242266178], [0.009163137525320053, -0.019686859101057053, 0.03349555283784866, -0.07005934417247772, -0.050384651869535446], [-0.011113671585917473, -0.023100974038243294, -0.02536972239613533, 0.05557927116751671, 0.010246289893984795], [0.07475359737873077, -0.06716961413621902, -0.07039707154035568, 0.012364617548882961, 0.04210088774561882]], [[0.04051414877176285, -0.07724582403898239, -0.03768400102853775, -0.0666671022772789, -0.03277314826846123], [-0.0701853558421135, 0.04978587478399277, 0.06782621890306473, -0.031026938930153847, -0.027592899277806282], [0.0036492261569947004, 0.04686001315712929, 0.04671246558427811, -0.06361471861600876, 0.05662980675697327], [0.07391508668661118, -0.035321712493896484, 0.024161068722605705, -0.042217522859573364, -0.045796338468790054], [-0.0077404361218214035, 0.07646072655916214, -0.07887334376573563, 0.02698132023215294, -0.007838519290089607]], [[0.021604230627417564, 0.010236449539661407, -0.010727119632065296, -0.0167421642690897, -0.038309067487716675], [-0.06818700581789017, -0.07203235477209091, -0.07692411541938782, 0.019080186262726784, 0.08113156259059906], [0.035070765763521194, -0.050635211169719696, -0.029882505536079407, -0.05904574319720268, 0.06786514818668365], [0.021409980952739716, 0.08048691600561142, -0.07014293223619461, -0.051864635199308395, -0.08093510568141937], [0.035105641931295395, -0.04726230353116989, 0.06768739223480225, 0.0321638286113739, -0.06755126267671585]], [[0.034599125385284424, 0.0302559956908226, 0.065581776201725, -0.027086889371275902, -0.007214822806417942], [0.06100235879421234, 0.027834579348564148, 0.003523237071931362, -0.04430443421006203, 0.07703638076782227], [0.077254518866539, 0.053722791373729706, 0.014785012230277061, 0.04152057319879532, 0.06540992110967636], [0.015034654177725315, 0.00046558736357837915, 0.07890723645687103, 0.04925075173377991, 0.07080812752246857], [0.03871496021747589, -0.025501852855086327, -0.06087404489517212, -0.02812189981341362, -0.06639578938484192]], [[0.05700311064720154, -0.07178755104541779, 0.06030178815126419, -0.03469472751021385, 0.06224597617983818], [0.0707874745130539, 0.027658531442284584, 0.04925848916172981, -0.05263817682862282, 0.0538775697350502], [-0.051014676690101624, -0.04720785841345787, 0.05566514655947685, -0.018046420067548752, 0.04416653886437416], [-0.006991091184318066, -0.05632849037647247, 0.009166563861072063, 0.03881440684199333, -0.026598524302244186], [0.05476779490709305, -0.0007451792480424047, -0.0497896783053875, 0.04463895037770271, 0.07606103271245956]], [[0.07316102087497711, -0.023874370381236076, 0.06182246655225754, -0.02042577974498272, 0.07882039248943329], [-0.004634761717170477, -0.0022196625359356403, 0.01908722333610058, -0.010663648135960102, -0.06537601351737976], [-0.008979556150734425, 0.05179218947887421, 0.027275005355477333, 0.0784764438867569, 0.043216053396463394], [0.01880991831421852, -0.01107217837125063, -0.07228494435548782, 0.07738897949457169, 0.07182786613702774], [0.03829703852534294, -0.029536161571741104, -0.03627030923962593, 0.07107037305831909, 0.010630086995661259]]], [[[-0.0654011070728302, -0.07002156972885132, 0.08132446557283401, -0.07400965690612793, 0.030395736917853355], [-0.0680542066693306, -0.07355936616659164, 0.013140866532921791, -0.030330553650856018, -0.03193977475166321], [0.07182206958532333, -0.06137232482433319, 0.05998748540878296, 0.002748234663158655, 0.019324883818626404], [-0.05870621278882027, -0.03494716063141823, -0.027555309236049652, -0.0396944135427475, -0.03048861399292946], [-0.0356653593480587, -0.04885925352573395, 0.02292868308722973, 0.023896748200058937, -0.061233263462781906]], [[0.0011548579204827547, -0.012603426352143288, 0.008195657283067703, 0.009686220437288284, 0.07668829709291458], [0.07055745273828506, 0.00926552340388298, -0.05916127562522888, -0.008453660644590855, -0.06226441264152527], [0.032608598470687866, 0.027392810210585594, 0.026321375742554665, 0.045040424913167953, -0.039148010313510895], [-0.027605630457401276, -0.02775009348988533, -0.010957450605928898, 0.032803431153297424, -0.06621045619249344], [0.0018791590118780732, -0.005952196661382914, -0.01916985958814621, -0.07640979439020157, 0.07815194129943848]], [[-0.06289909780025482, 0.03542033210396767, -0.05729333311319351, 0.03451788052916527, -0.0730166882276535], [0.052249688655138016, -0.07574019581079483, 0.009389945305883884, -0.05840139091014862, -0.01732064038515091], [0.07809659093618393, -0.02457771636545658, 0.006505472119897604, -0.004322057124227285, -0.07878109067678452], [0.07997681945562363, -0.002089342102408409, 0.01936306804418564, -0.014387305825948715, -0.01894742250442505], [-0.05534224212169647, -0.0011347488034516573, -0.028718147426843643, -0.04335419088602066, -0.0559326596558094]], [[0.040677137672901154, 0.07419490814208984, 0.06878527998924255, -0.05713407322764397, 0.06885605305433273], [-0.08155345916748047, 0.06393245607614517, -0.032168909907341, 0.04642461985349655, 0.04266558960080147], [-0.060127921402454376, 0.05430341511964798, -0.06654945015907288, -0.030396291986107826, -0.004015250597149134], [-0.033250465989112854, 0.02151627093553543, 0.06265439093112946, -0.07040024548768997, -0.013604565523564816], [-0.01403071265667677, 0.061375148594379425, -0.019272487610578537, 0.029274070635437965, 0.08108136802911758]], [[-0.05302899330854416, -0.04973985254764557, -0.023447249084711075, 0.05550552159547806, 0.04900921508669853], [0.011739753186702728, 0.05143412575125694, -0.012348450720310211, 0.060540471225976944, -0.07407183945178986], [0.017220191657543182, 0.06391377747058868, -0.0772847831249237, -0.030060704797506332, 0.06258171051740646], [-0.053213197737932205, 0.06707979738712311, 0.05734029412269592, -0.00853014551103115, -0.04326557740569115], [-0.02434479631483555, 0.08124446123838425, 0.00033107181661762297, 0.061074405908584595, -0.05403841659426689]], [[-0.07132469862699509, 0.055566977709531784, 0.05985561013221741, 0.03100675158202648, -0.01260756328701973], [-0.013861838728189468, -0.07837198674678802, -0.0579884797334671, 0.08006184548139572, -0.02231823466718197], [0.06512011587619781, 0.013373153284192085, -0.023319197818636894, 0.029546547681093216, -0.020914610475301743], [0.03925381228327751, -0.06890129297971725, 0.010858939029276371, 0.048605065792798996, 0.06109612062573433], [-0.040923088788986206, 0.005091735161840916, -0.05200565233826637, -0.07122212648391724, -0.055696792900562286]]], [[[-0.04490064084529877, -0.04475456476211548, 0.024335432797670364, 0.044494107365608215, -0.06957504153251648], [-0.004283872898668051, -0.041106127202510834, 0.02346224896609783, -0.05398410186171532, 0.007462664507329464], [-0.07850781828165054, 0.00854505691677332, -0.0006065659108571708, 0.019459525123238564, -0.041755206882953644], [-0.045641861855983734, -0.05140006169676781, 0.02376570738852024, -0.02672487497329712, -0.023714333772659302], [-0.06123967841267586, -0.035849109292030334, -0.00022889059619046748, 0.01262888964265585, 0.051588431000709534]], [[-0.045139946043491364, 0.038782667368650436, -0.07086145132780075, -0.01398097537457943, -0.0489761047065258], [0.005459307227283716, 0.06106755509972572, -0.07532452046871185, 0.0016019518952816725, 0.04472924768924713], [0.04670395702123642, 0.07693380862474442, -0.07419635355472565, 0.0283556766808033, -0.061767324805259705], [-0.0036192473489791155, 0.06755301356315613, -0.07362000644207001, 0.06733543425798416, 0.02866325154900551], [0.05380021035671234, -0.03457602858543396, -0.038190487772226334, 0.06610481441020966, 0.03293473273515701]], [[0.03781093284487724, 0.007241443730890751, -0.07434380799531937, -0.06199335679411888, -0.0644286647439003], [-0.08161097764968872, -0.04993453994393349, 0.0746355801820755, -0.08098644763231277, 0.037232864648103714], [-0.05489356070756912, -0.04639318212866783, -0.032464463263750076, -0.07022618502378464, 0.06572386622428894], [-0.05039691552519798, 0.006390569731593132, 0.044080737978219986, 0.021717557683587074, -0.017573446035385132], [0.03272762522101402, 0.008860575035214424, 0.06329242140054703, -0.07505235075950623, 0.05478692427277565]], [[-0.06713591516017914, 0.016920296475291252, 0.024434499442577362, 0.06941758096218109, -0.01283769030123949], [-0.0572962611913681, 0.004613504279404879, -0.07726611196994781, -0.04479615390300751, 0.030056022107601166], [-0.024996602907776833, -0.009369009174406528, -0.02581900730729103, 0.0697743147611618, -0.010636121965944767], [-0.029255645349621773, 0.05909156799316406, 0.05450410768389702, 0.0563756488263607, -0.05558731034398079], [0.06935159116983414, 0.024569092318415642, -0.06608233600854874, -0.04008099436759949, -0.03546483442187309]], [[-0.004545759875327349, 0.028500284999608994, -0.01069021038711071, 0.03968566283583641, 0.010281962342560291], [0.0599391907453537, -0.04399337247014046, 0.0038717996794730425, 0.009842811152338982, 0.058705005794763565], [-0.007806788664311171, 0.018434131518006325, -0.06601738929748535, 0.003032586071640253, -0.041512951254844666], [0.012108386494219303, -0.0009198352927342057, -0.031536765396595, -0.0026238709688186646, -0.07068240642547607], [-0.02516099065542221, -0.042710237205028534, -0.024367425590753555, 0.01467668917030096, -0.03754609823226929]], [[-0.0020588375627994537, 0.016633111983537674, 0.04673740267753601, 0.025919776409864426, 0.05190735682845116], [-0.04407868534326553, -0.02692096307873726, -0.026666415855288506, 0.03505796566605568, 0.031620364636182785], [0.05931427702307701, 0.04781830683350563, -0.04585343599319458, 0.025199417024850845, 0.048499323427677155], [0.07888674736022949, 0.04464862495660782, 0.03923387825489044, -0.03854411840438843, 0.049105916172266006], [0.0343606173992157, -0.058698590844869614, 0.03749697282910347, 0.00018180040933657438, -0.06941962987184525]]], [[[0.05889485403895378, -0.016146285459399223, 0.04366031661629677, 0.0028549320995807648, -0.05050203949213028], [0.08073506504297256, -0.0011895282659679651, 0.06398342549800873, -0.0039900606498122215, 0.016417711973190308], [0.04655858129262924, -0.04270593449473381, -0.010284892283380032, -0.01909716986119747, -0.05149656534194946], [-0.060221195220947266, -0.042786605656147, -0.07324197143316269, 0.06706858426332474, 0.020904945209622383], [0.0016695113154128194, -0.03682897984981537, 0.012950305826961994, 0.05391184985637665, -0.008547033183276653]], [[0.005961638409644365, 0.07707158476114273, -0.07419649511575699, 0.01958208903670311, 0.060221944004297256], [0.07397528737783432, -0.025461694225668907, -0.07453407347202301, -0.06977610290050507, -0.06392163038253784], [0.020296957343816757, 0.053396135568618774, 0.005439295433461666, -0.03313316032290459, 0.06836390495300293], [-0.017583977431058884, 0.0794832855463028, 0.05033031105995178, -0.07674679160118103, -0.033347781747579575], [0.05778015777468681, -0.08058208227157593, 0.05362267047166824, -0.07499289512634277, -0.04507642611861229]], [[0.013188686221837997, 0.06905358284711838, -0.05921856686472893, 0.009074904955923557, 0.07897613942623138], [-0.002629409311339259, 0.037570808082818985, -0.07579286396503448, 0.012201379053294659, 0.07490763813257217], [0.008325559087097645, 0.006759815849363804, -0.05719767138361931, 0.06804339587688446, 0.004427712876349688], [-0.0798787772655487, 0.08057921379804611, 0.034597743302583694, 0.017874382436275482, -0.05058111995458603], [0.07482453435659409, 0.03465929627418518, 0.07524805516004562, 0.053736913949251175, 0.01284199208021164]], [[-0.034132640808820724, 0.0586930513381958, 0.040680766105651855, -0.0041416482999920845, 0.08008570224046707], [-0.006636192090809345, 0.06271179020404816, 0.0579511933028698, -0.04912281408905983, 0.033099401742219925], [0.020508551970124245, -0.02958991937339306, -0.017684543505311012, 0.017153264954686165, 0.0748903676867485], [-0.007155322469770908, -0.08023051917552948, 0.012179420329630375, -0.06346223503351212, -0.03253159672021866], [0.060293007642030716, -0.0709756463766098, -0.04401910677552223, -0.03152647614479065, 0.054336607456207275]], [[-0.06457065045833588, 0.07294668257236481, 0.0187233779579401, 0.06288810819387436, 0.041026271879673004], [-0.01627039723098278, -0.028413958847522736, 0.06124710664153099, -0.05229029804468155, 0.005410805810242891], [0.05896171182394028, -0.03969256207346916, -0.004113703966140747, 0.006226308643817902, 0.01138413418084383], [0.045456741005182266, -0.03168824687600136, 0.08117038756608963, 0.01140278298407793, 0.03705437481403351], [0.04170837998390198, 0.02146606519818306, 0.03922212868928909, 0.03788130357861519, 0.08103559911251068]], [[0.03474268317222595, 0.07731814682483673, -0.06865935027599335, 0.04724820330739021, 0.004253884311765432], [0.037258580327034, 0.07736679166555405, 0.016005005687475204, -0.06955896317958832, -0.014381387270987034], [0.07677797228097916, 0.06692245602607727, -0.030284231528639793, 0.059871379286050797, 0.06546054780483246], [0.03619706630706787, -0.04523395374417305, 0.08072523772716522, 0.04956517741084099, -0.029998820275068283], [-0.013150501996278763, -0.03622134029865265, -0.07141487300395966, -0.07135255634784698, 0.04226987063884735]]], [[[0.006302229128777981, -0.019317641854286194, -0.0499018095433712, -0.04619105905294418, -0.05542723461985588], [0.005210950039327145, -0.015480443835258484, 0.027124693617224693, -0.047767702490091324, -0.07086192816495895], [-0.05107783526182175, -0.011807945556938648, 0.0352943129837513, -0.02424895018339157, -0.06906278431415558], [0.01653563231229782, -0.03509722277522087, -0.04109516739845276, 0.015414929017424583, -0.07775645703077316], [0.05459044501185417, -0.027761373668909073, -0.06564980745315552, -0.04550638049840927, -0.06791473925113678]], [[-0.05668254196643829, 0.0601540170609951, -0.007160734385251999, -0.04766229912638664, 0.06497130542993546], [-0.01030267495661974, 0.02387772873044014, 0.022849755361676216, 0.022055869922041893, 0.057306092232465744], [-0.017282096669077873, 0.00372423161752522, 0.06993826478719711, 0.05004221200942993, -0.0094507597386837], [0.011490500532090664, -0.03838055208325386, 0.031436190009117126, -0.04254056513309479, 0.037365980446338654], [-0.03319846838712692, 0.07171367108821869, -0.07699257880449295, -0.06498631834983826, 0.011506181210279465]], [[-0.027867790311574936, 0.018795620650053024, 0.0806235820055008, -0.047063373029232025, -0.006697444245219231], [-0.07636582106351852, -0.008295034989714622, 0.03149915486574173, -0.021443620324134827, 0.07322199642658234], [0.07643461227416992, -0.006292106583714485, 0.05828702449798584, -0.06179981678724289, -0.006419828161597252], [-0.024345798417925835, 0.0041952598839998245, -0.05448438972234726, 0.013522474095225334, 0.003539812983945012], [0.07461382448673248, 0.003993107005953789, -0.028033003211021423, 0.02924078330397606, 0.004095405340194702]], [[-0.04436742886900902, -0.04034994915127754, -0.07907826453447342, -0.001039877301082015, -0.07931466400623322], [-0.011314579285681248, 0.02236148901283741, 0.020232269540429115, 0.012924249283969402, -0.06205516308546066], [-0.020779909566044807, -0.08033660799264908, 0.054621901363134384, 0.07915619760751724, 0.052672963589429855], [-0.04662315174937248, -0.03521711751818657, -0.08143928647041321, 0.0741007998585701, -0.05344197154045105], [0.002463727490976453, -0.027140840888023376, 0.01712365634739399, -0.07143725454807281, 0.015437996946275234]], [[0.030494794249534607, -0.04970874637365341, -0.07696016877889633, 0.06579363346099854, -0.02176930010318756], [-0.04659372940659523, 0.023393472656607628, 0.05768681317567825, 0.021142469719052315, -0.014686062932014465], [0.011812666431069374, 0.06932173669338226, -0.007117683533579111, -0.025409629568457603, -0.0743495374917984], [-0.04568340256810188, 0.03614676371216774, 0.032692041248083115, 0.03986139968037605, -0.06069429591298103], [0.07151498645544052, 0.03592776507139206, -0.021983502432703972, 0.028893670067191124, -0.04697772115468979]], [[-0.08113172650337219, 0.07940488308668137, 0.04540983587503433, 0.05237112194299698, -0.019665708765387535], [0.05320584028959274, 0.02445431612432003, -0.034887466579675674, -0.06476562470197678, -0.01514510903507471], [0.07512922585010529, 0.06302738934755325, -0.03270602971315384, -0.038386158645153046, 3.778505197260529e-05], [-0.016017192974686623, 0.0585421659052372, 0.024528387933969498, 0.08125478774309158, -0.021740371361374855], [-0.05847245454788208, -0.07153137773275375, -0.02375495247542858, -0.010850402526557446, -0.0319054089486599]]], [[[0.022259201854467392, -0.04148267209529877, -0.0060951123014092445, 0.03552224859595299, -0.04532002657651901], [0.012727683410048485, 0.07882565259933472, 0.07004263252019882, 0.044441353529691696, -0.058255456387996674], [0.03597680851817131, 0.04527091979980469, 0.06628280878067017, -0.03668605163693428, 0.06498915702104568], [0.03056768886744976, -0.06891346722841263, 0.06804563105106354, 0.032476212829351425, 0.06189923360943794], [0.07915250211954117, -0.04600635543465614, -0.06474186480045319, -0.01446932926774025, 0.06696554273366928]], [[-0.053153764456510544, -0.032135602086782455, -0.062305476516485214, 0.044347845017910004, 0.057266537100076675], [0.02665027789771557, -0.04054984077811241, 0.04808459430932999, -0.015137691982090473, 0.06336233764886856], [-0.04580732807517052, -0.06922926008701324, -0.03264038637280464, 0.053196776658296585, 0.05580395460128784], [-0.028496265411376953, 0.06163610890507698, -0.022487837821245193, -0.027524910867214203, -0.04758309945464134], [-0.05154022201895714, 0.07947368174791336, 0.06172000244259834, -0.02375260554254055, 0.053176142275333405]], [[-0.0014667939394712448, 0.062001969665288925, 0.04427812248468399, -0.028651610016822815, 0.07597657293081284], [0.016520867124199867, -0.03065437451004982, 0.027389101684093475, 0.017563877627253532, 0.05963664874434471], [0.02800614945590496, 0.04619329422712326, -0.05545426532626152, 0.07897985726594925, -0.07590878754854202], [-0.03657902404665947, -0.057639654725790024, 0.07799782603979111, -0.07745847851037979, -0.03551407530903816], [-0.05911562964320183, 0.06206866353750229, 0.06931940466165543, -0.0010026470990851521, 0.03532969579100609]], [[0.06342412531375885, -0.030972568318247795, -0.05467277765274048, 0.08005775511264801, 0.059745438396930695], [-0.026030512526631355, 0.02500089444220066, 0.06463965028524399, -0.00228732917457819, -0.03174503892660141], [0.06044935807585716, 0.04205366224050522, -0.012947872281074524, -0.0524265430867672, 0.02774764969944954], [0.036310501396656036, -0.05257152393460274, -0.05138402059674263, -0.028808562085032463, 0.07269604504108429], [-0.06557208299636841, -0.004205801524221897, 0.018354259431362152, 0.03135669603943825, -0.07116217166185379]], [[0.0486534908413887, -0.0805562287569046, 0.012968895956873894, 0.07969404011964798, -0.02274075150489807], [0.04756198823451996, -0.023870516568422318, 0.04563986510038376, -0.017620224505662918, 0.049837011843919754], [0.010590579360723495, 0.03533036634325981, 0.034259673207998276, -0.06599021703004837, 0.03905177488923073], [-0.07248412072658539, -0.04117925092577934, 0.04687608405947685, 0.06448009610176086, -0.004336287267506123], [0.042378202080726624, 0.05279757082462311, -0.07662981003522873, 0.008365407586097717, 0.0637134313583374]], [[0.07763012498617172, -0.0068470174446702, 0.05744834616780281, -0.0480588860809803, -0.04084672033786774], [-0.03630509972572327, -0.05153238773345947, 0.004825877025723457, 0.026195114478468895, -0.02584707736968994], [-0.06926058977842331, 0.04750239849090576, 0.0285359974950552, -0.013549133203923702, -0.07241522520780563], [-0.010032213293015957, 0.06462540477514267, -0.059378817677497864, -0.061370182782411575, -0.025256961584091187], [-0.06151209771633148, 0.06381914019584656, -0.04423963651061058, -0.05668896436691284, 0.0681622102856636]]], [[[0.037541940808296204, 0.07542836666107178, -0.05835985019803047, -0.07372350245714188, 0.004185546189546585], [0.029202325269579887, -0.043026797473430634, -0.040105756372213364, -0.04717900604009628, -0.01999935880303383], [0.05163983255624771, -0.07401229441165924, 0.030065765604376793, 0.052460961043834686, -0.08080947399139404], [0.010724209249019623, -0.04837506636977196, -0.053914811462163925, -0.046229805797338486, -0.03427436202764511], [-0.04196998476982117, -0.013203578069806099, 0.04295339807868004, -0.03976185619831085, 0.002302367240190506]], [[0.024014532566070557, 0.004645498003810644, -0.022298183292150497, 0.01995990052819252, 0.054111454635858536], [0.0008924163412302732, -0.06454005837440491, -0.0005261583137325943, 0.08153560757637024, 0.01291069108992815], [-0.0422000028192997, 0.06005674973130226, -0.0486811026930809, -0.015641240403056145, -0.010207521729171276], [0.04145660623908043, -0.07711898535490036, -0.03524935618042946, -0.0761670246720314, 0.0006768215680494905], [-0.015072332695126534, 0.04437308385968208, 0.051967915147542953, -0.01055858563631773, 0.004066253546625376]], [[-0.02530144341289997, -0.00295023201033473, 0.07908584177494049, -0.03533970192074776, -0.051980383694171906], [-0.02039220929145813, -0.0072385044768452644, -0.047495897859334946, -0.08124735206365585, -0.04728388413786888], [-0.04876159876585007, 0.008764516562223434, -0.047495778650045395, -0.010768311098217964, -0.031118715181946754], [-0.023657189682126045, 0.06931301951408386, -0.08108212798833847, 0.04843980446457863, -0.029112866148352623], [0.015858450904488564, -0.041859306395053864, -0.06417621672153473, 0.0781438946723938, 0.030112076550722122]], [[-0.07639578729867935, -0.00670321611687541, -0.022735601291060448, -0.030508216470479965, 0.07346062362194061], [-0.010745827108621597, -0.010073531419038773, 0.03758533298969269, -0.057805385440588, -0.040314167737960815], [-0.04909076169133186, 0.03329147398471832, 0.005434234160929918, -0.02084718644618988, 0.0503365695476532], [-0.07018974423408508, -0.06845288723707199, -0.07009906321763992, 0.04089467599987984, -0.0468422994017601], [-0.061677224934101105, -0.0755264014005661, 0.002878535771742463, 0.017823351547122, 0.06479527056217194]], [[0.04074952378869057, -0.0007287200423888862, -0.002740321448072791, 0.07402239739894867, 0.01393004972487688], [0.01708146184682846, 0.05538477748632431, 0.04164613410830498, -0.04879987984895706, 0.04196720942854881], [0.053758785128593445, 0.011186808347702026, -0.07586486637592316, 0.05119822919368744, -0.054850850254297256], [-0.0675123855471611, 0.055717553943395615, 0.020504940301179886, 0.0778263732790947, -0.06857259571552277], [0.025003202259540558, -0.07598284631967545, 0.05543665587902069, 0.028460057452321053, -0.034523047506809235]], [[-0.0043717361986637115, 0.03768746554851532, -0.040539368987083435, 0.03174908831715584, 0.07770892977714539], [-0.05717841908335686, 0.06686830520629883, 0.04024394974112511, -0.05946559086441994, -0.041840560734272], [0.05335100367665291, -0.06373676657676697, -0.0759229063987732, 0.023551523685455322, -0.014781994745135307], [-0.007703527342528105, -0.0724092498421669, -0.03955483436584473, 0.07871278375387192, 0.05060158297419548], [-0.07598710060119629, 0.009983147494494915, -0.03738086298108101, 0.01999789848923683, 0.012518220581114292]]], [[[-0.0028439140878617764, 0.029463443905115128, 0.027188632637262344, -0.031933244317770004, -0.0018570739775896072], [-0.06421126425266266, -0.028929926455020905, 0.05981263518333435, 0.028814002871513367, -0.04554564505815506], [-0.035771939903497696, -0.06319323927164078, -0.05496377870440483, 0.04599460959434509, -0.05123818293213844], [-0.029032059013843536, 0.04746332764625549, 0.06731326133012772, 0.05333469808101654, 0.04915080964565277], [0.033895447850227356, 0.07729270309209824, -0.0029013799503445625, -0.03300834819674492, -0.03938930854201317]], [[-0.08092993497848511, 0.06108004227280617, 0.052141375839710236, 0.054548777639865875, -0.03646894171833992], [-0.07679786533117294, 0.03465697914361954, -0.013717783614993095, 0.06326144188642502, 0.029364503920078278], [-0.06559533625841141, 0.02952614612877369, 0.04857080429792404, -0.06436076760292053, 0.055180978029966354], [-0.07576949894428253, -0.03599756956100464, 0.012829669751226902, -0.03407525271177292, 0.01797587238252163], [0.0646001547574997, 0.0004964909167028964, 0.02747826837003231, -0.027256298810243607, -0.06386895477771759]], [[-0.06297925859689713, -0.03768809884786606, -0.03966262564063072, 0.048994917422533035, -0.028887469321489334], [0.048987939953804016, 0.07239152491092682, 0.029290519654750824, 0.043324533849954605, 0.07802117615938187], [-0.0703265592455864, 0.05409648269414902, -0.033607419580221176, -0.054152537137269974, 0.03112727962434292], [0.044799406081438065, 0.02242342382669449, 0.02405087649822235, 0.003797436598688364, 0.06224660947918892], [-0.06142919883131981, 0.08066026866436005, -0.07018697261810303, 0.036366622895002365, -0.030948566272854805]], [[-0.07516299188137054, -0.04841756075620651, -0.07078738510608673, 0.01327519677579403, 0.020213600248098373], [-0.05407243221998215, -0.07949388027191162, -0.07631376385688782, -0.06119556725025177, 0.0520307831466198], [0.04691201075911522, 0.04723336920142174, 0.07134087383747101, -0.021135684102773666, -0.0023915348574519157], [-0.010473526082932949, -0.06076766923069954, -0.05253883823752403, 0.08048843592405319, -0.044665317982435226], [0.054852183908224106, -0.022730473428964615, 0.01802236959338188, -0.07709605991840363, 0.07492025196552277]], [[0.029477110132575035, 0.008948788978159428, -0.05986635386943817, -0.05970752611756325, 0.004244880750775337], [-0.011156284250319004, -0.03748498857021332, -6.039573418092914e-05, -0.003783887717872858, -0.002193508902564645], [0.03327587991952896, 0.07442079484462738, 0.06595847010612488, 0.045745860785245895, 0.01721915975213051], [0.078628771007061, 0.0790637731552124, 0.04501546546816826, -0.03984307125210762, 0.019462699070572853], [-0.07300032675266266, 0.0802765041589737, 0.04710283502936363, 0.00023678436991758645, 0.010813853703439236]], [[-0.053814906626939774, -0.029947582632303238, -0.07789365947246552, -0.04993729665875435, 0.06459391862154007], [0.009034608490765095, -0.021399138495326042, 0.04898049309849739, -0.07434310019016266, 0.008218783885240555], [-0.07990580797195435, 0.039242055267095566, 0.024397987872362137, -0.07360558956861496, 0.049818266183137894], [-4.1688144847285e-05, 0.07931583374738693, 0.03534336015582085, 0.056580692529678345, 0.006227720063179731], [0.055641137063503265, -0.003246351145207882, 0.007821758277714252, -0.0784812718629837, 0.020926961675286293]]], [[[-0.03770599514245987, -0.03581562638282776, -0.023652711883187294, -0.04599152132868767, 0.02262968383729458], [-0.07418979704380035, 0.02249326929450035, 0.06316870450973511, -0.04696981608867645, -0.08160203695297241], [0.062409933656454086, -0.014912762679159641, -0.07257057726383209, -0.049653470516204834, -0.06470997631549835], [0.03742244467139244, -0.07449561357498169, 0.04828238487243652, 0.04036422818899155, 0.04549220949411392], [0.06301657855510712, -0.0073960102163255215, -0.04287800192832947, -0.07794740051031113, 0.03630415350198746]], [[0.011416642926633358, -0.07424594461917877, 0.009862570092082024, 0.054246895015239716, 0.020401310175657272], [0.050734616816043854, 0.018101083114743233, -0.06732851266860962, -0.08122289180755615, 0.04548048973083496], [-0.04054119810461998, 0.0796506255865097, 0.052325598895549774, -0.037403978407382965, -0.010947532020509243], [0.07952283322811127, 0.06689506769180298, -0.07438375055789948, -0.037719614803791046, 0.07017122209072113], [0.06762141734361649, -0.06975914537906647, 0.010942121036350727, 0.04158909618854523, 0.004938268568366766]], [[0.03593236580491066, -0.006961365230381489, 0.06371177732944489, 0.05422449856996536, 0.057528119534254074], [0.021764909848570824, 0.07423394173383713, 0.01059449277818203, -0.04109744355082512, 0.07167420536279678], [-0.023560214787721634, -0.06462711840867996, 0.0018031996442005038, -0.043370336294174194, 0.06545618921518326], [-0.02011648193001747, 0.058824267238378525, -0.03567123785614967, -0.03146756812930107, 0.08127386122941971], [-0.003210035851225257, 0.019612057134509087, -0.0727493092417717, -0.0387374646961689, 0.065196692943573]], [[0.0507226437330246, -0.01677808165550232, -0.056751150637865067, -0.0063966722227633, -0.07435326278209686], [0.028136441484093666, 0.04353959113359451, 0.0062182010151445866, 0.057579997926950455, -0.07505214959383011], [0.026831941679120064, -0.04727480188012123, -0.0024467329494655132, 0.04801202192902565, 0.04770032688975334], [0.047270793467760086, 0.003273429349064827, -0.07008267939090729, -0.06712714582681656, 0.01183548104017973], [-0.034311484545469284, -0.06738622486591339, 0.03643602132797241, 0.012983067892491817, -0.031957969069480896]], [[0.019646085798740387, -0.06700540333986282, 0.0764317587018013, -0.0053626252338290215, 0.05164491385221481], [0.04846210405230522, -0.05896162614226341, -0.016298312693834305, -0.0270722396671772, -0.048758912831544876], [0.055790115147829056, 0.03766407445073128, 0.02121899276971817, 0.07964243739843369, 0.07530037313699722], [0.06995704025030136, -0.07585787028074265, -0.07937715947628021, -0.044831156730651855, 0.040718309581279755], [-0.037054434418678284, -0.06643255054950714, -0.035038791596889496, 0.05852976441383362, -0.028688469901680946]], [[-0.04374530911445618, 0.0029889708384871483, 0.013583716005086899, 0.07113777846097946, 0.08083758503198624], [-0.005962153896689415, 0.018727291375398636, -0.04291214793920517, 0.06522108614444733, -0.04232586547732353], [-0.010942636989057064, -0.019214915111660957, -0.035517189651727676, 0.05492379516363144, 0.046677589416503906], [0.053177788853645325, 0.05052909627556801, 0.032436616718769073, -0.009284250438213348, -0.07442894577980042], [-0.007194918114691973, -0.020458590239286423, 0.06023479253053665, -0.03871729597449303, 0.05472757667303085]]], [[[-0.07836608588695526, -0.02688438445329666, 0.025607645511627197, 0.05207289010286331, -0.02077958732843399], [0.012028134427964687, 0.020691005513072014, 0.03725866973400116, -0.012109602801501751, 0.021569259464740753], [-0.04395674541592598, 0.015412972308695316, 0.04189169034361839, 0.0669068917632103, 0.017600251361727715], [-0.024958904832601547, 0.01373108010739088, -0.0374329537153244, 0.034142568707466125, -0.06183818727731705], [-0.0057395221665501595, 0.07353047281503677, 0.005151235498487949, -0.049408528953790665, -0.06674888730049133]], [[-0.026246584951877594, 0.06356914341449738, 0.07465609163045883, -0.07113396376371384, 0.001901974086649716], [-0.051742784678936005, 0.04002714902162552, -0.04293297603726387, 0.014770938083529472, 0.04169744998216629], [0.015067572705447674, -0.07438977062702179, -0.02705676294863224, 0.02566506341099739, 0.06243874505162239], [-0.05842331051826477, 0.029224449768662453, -0.041579850018024445, 0.054570626467466354, 0.02895585633814335], [-0.030309509485960007, -0.0660429522395134, -0.064913310110569, 0.010052322410047054, -0.005616764537990093]], [[-0.05329033359885216, 0.010916141793131828, 0.01861812174320221, -0.015085599385201931, 0.015968767926096916], [-0.04170532524585724, 0.02587582916021347, 0.0292676854878664, -0.030538983643054962, -0.03791799023747444], [0.01128237135708332, 0.025446781888604164, -0.02747930958867073, 0.0029400119092315435, -0.06361351162195206], [-0.015926700085401535, -0.0039820014499127865, 0.027685297653079033, -0.03246888518333435, -0.02570968121290207], [0.06222517415881157, -0.03162088245153427, 0.05838026851415634, 0.06529577821493149, 0.003958339337259531]], [[-0.0326865017414093, -0.08049536496400833, 0.00875117164105177, 0.03451325744390488, 0.05606880038976669], [0.06177778169512749, -0.04478105902671814, -0.055431291460990906, -0.04450758919119835, 0.03318597376346588], [0.024663826450705528, 0.049194902181625366, -0.0709008201956749, -0.06375640630722046, -0.055909477174282074], [-0.024719327688217163, -0.03752869367599487, -0.06621754169464111, 0.03056768886744976, 0.04425141587853432], [-0.046773649752140045, -0.06628035008907318, -0.0359513945877552, -0.03614650294184685, 0.07526995241641998]], [[0.019482534378767014, -0.047997694462537766, -0.07056330144405365, 0.06934656947851181, 0.07705987989902496], [0.025498446077108383, 0.03151724115014076, 0.015881303697824478, 0.0033475395757704973, 0.06671346724033356], [-0.0039200871251523495, -0.03438747301697731, -0.07434450089931488, 0.022831514477729797, 0.026982789859175682], [-0.03582185506820679, -0.012714698910713196, 0.07618946582078934, -0.03497174009680748, -0.01172830630093813], [0.029562918469309807, -0.04243297129869461, 0.026469266042113304, -0.06253977119922638, 0.06642889231443405]], [[0.0032539626117795706, 0.009267596527934074, 0.04878555238246918, -0.01785987988114357, 0.05773981288075447], [0.007513871882110834, 0.01896483451128006, 0.060937944799661636, -0.0033358593937009573, 0.0688231959939003], [-0.06423022598028183, 0.0011061715194955468, -0.06644308567047119, 0.0009583309292793274, 0.022693729028105736], [0.016708020120859146, -0.0073309228755533695, -0.01724519580602646, 0.03503807261586189, 0.021110348403453827], [-0.061416398733854294, 0.013328321278095245, 0.02494232915341854, 0.02072935365140438, -0.05107198655605316]]], [[[-0.020303526893258095, -0.028324946761131287, -0.02654891461133957, 0.07285021245479584, 0.08045951277017593], [0.05417580157518387, -0.06305655092000961, 0.02626161277294159, -0.023457879200577736, -0.004948858637362719], [-0.03587713837623596, 0.005069562699645758, 0.06685870885848999, -0.057652007788419724, -0.05777042359113693], [-0.023723892867565155, 0.046354249119758606, -0.045777563005685806, -0.04226505383849144, 0.07094019651412964], [0.0028198822401463985, 0.043079670518636703, 0.06568871438503265, 0.07709347456693649, -0.07654985785484314]], [[0.0005367190460674465, 0.057039689272642136, -0.04721633344888687, -0.0023968005552887917, 0.03836037218570709], [-0.03669266402721405, 0.02205839194357395, -0.03665010631084442, -0.046318866312503815, 0.020167289301753044], [-0.01889704167842865, 0.04781689494848251, -0.03331859037280083, -0.07302878797054291, 0.025569120422005653], [-0.06634295731782913, 0.0338481068611145, -0.05737181007862091, -0.029392555356025696, 0.06799010932445526], [0.027523335069417953, -0.049158040434122086, 0.0654720589518547, 0.03730880469083786, -0.013365980237722397]], [[-0.02154928632080555, 0.06829691678285599, 0.002968472195789218, 0.03238631412386894, -0.007099851965904236], [0.05072694644331932, -0.07001224160194397, -0.05118480697274208, -0.03936327248811722, -0.04189438372850418], [-0.06916069984436035, -0.02575874701142311, -0.0592053197324276, 0.01604374498128891, -0.017034322023391724], [-0.0393839068710804, -0.06840714067220688, -0.0692024827003479, 0.06563125550746918, -0.021476780995726585], [0.04846307635307312, 0.05977625399827957, 0.07302360981702805, 0.06037577986717224, -0.07731331884860992]], [[-0.029837867245078087, -0.0435602180659771, -0.04072217270731926, -0.03484829142689705, 0.052691176533699036], [0.07818398624658585, -0.015265530906617641, 0.057769306004047394, -0.059567034244537354, 0.061881471425294876], [-0.02126162499189377, 0.03586900234222412, 0.05343622714281082, -0.0460519976913929, -0.01814931258559227], [-0.03822065889835358, -0.033313099294900894, -0.021858418360352516, 0.07468783855438232, 0.04995693638920784], [0.04616216942667961, 0.01930900849401951, -0.07123779505491257, -0.00037048233207315207, 0.06599218398332596]], [[0.03512143716216087, -0.018312541767954826, 0.061316173523664474, -0.05889386311173439, -0.0513816736638546], [-0.0572330541908741, -0.030701901763677597, -0.06332875788211823, 0.07102665305137634, 0.026297597214579582], [0.030597949400544167, -0.07838261872529984, -0.03652605414390564, -0.05486449971795082, 0.06680789589881897], [0.01912735402584076, -0.07671424746513367, -0.009018090553581715, -0.03558919578790665, 0.025701923295855522], [-0.028068842366337776, 0.06612645834684372, -0.06634543836116791, 0.06253351271152496, -0.03496851772069931]], [[-0.04606208950281143, -0.02232062816619873, -0.034553125500679016, -0.06770914793014526, 0.03276456519961357], [-0.07774341851472855, -0.009213547222316265, -0.06583047658205032, 0.023832818493247032, -0.04185885936021805], [-0.05891149863600731, 0.015179311856627464, -0.0002134339592885226, 0.07623708248138428, 0.02805965393781662], [-0.04886750876903534, 0.06939737498760223, 0.05656097084283829, -0.05421425774693489, 0.0007490725838579237], [-0.06375681608915329, -0.0796409398317337, -0.02924511395394802, 0.012342785485088825, -0.07256104052066803]]]], "dtype": "float32", "shape": [16, 6, 5, 5], "Corder": true}, "conv2.bias": {"__ndarray__": [-0.01137600652873516, -0.06935480982065201, -0.0001617301459191367, 0.02205049805343151, 0.06139937415719032, 0.004742121323943138, 0.00817033089697361, -0.05384744703769684, 0.007521629333496094, -0.04316795989871025, -0.02285938151180744, 0.0718449056148529, -0.01752324029803276, -0.05373619124293327, 0.02617196924984455, 0.07754954695701599], "dtype": "float32", "shape": [16]}, "fc1.weight": {"__ndarray__": [[-0.042794253677129745, -0.04210267215967178, -0.010316175408661366, 0.025686759501695633, -0.00224265456199646, -0.0010438322788104415, 0.010741508565843105, 0.021610712632536888, -0.03815319016575813, -0.043407123535871506, 0.001044666743837297, 0.01788005791604519, 0.025995194911956787, -0.01646926999092102, 0.027379674836993217, -0.046267684549093246, 0.03817256912589073, 0.0058727324940264225, -0.046690937131643295, 0.0219563078135252, 0.012115013785660267, 0.03869406133890152, 0.014651089906692505, -0.042011864483356476, 0.002493608044460416, -0.00297413463704288, 0.015299445949494839, -0.019492780789732933, -0.03458493947982788, 0.04598360136151314, 0.04436274990439415, 0.023412466049194336, 0.001478564809076488, -0.03810400888323784, 0.006953769829124212, -0.04078648239374161, 0.01231528539210558, 0.008663010783493519, -0.03532901033759117, -0.032505519688129425, 0.021080046892166138, 0.013542408123612404, -0.03457565978169441, 0.03257172927260399, -0.04618313908576965, 0.016477037221193314, 0.03081151284277439, 0.008016103878617287, -0.04189585521817207, 0.04472514986991882, -0.010127645917236805, -0.042691078037023544, 0.03780338168144226, -0.047418612986803055, 0.035480476915836334, 0.035688143223524094, 0.027469664812088013, 0.00432633189484477, -0.03649218752980232, -0.04051526263356209, 0.04519606754183769, -0.02255868911743164, -0.03330153226852417, -0.03705357387661934, -0.01431251224130392, -0.03658827021718025, 0.03980335593223572, 0.018089527264237404, -0.005802541971206665, 0.02734534814953804, -0.032614585012197495, 0.03789256885647774, -0.008941960521042347, 0.00024570824461989105, -0.02172347903251648, -0.007094097323715687, -0.036976158618927, -0.023054664954543114, 0.0347687304019928, 0.029757296666502953, -0.020010381937026978, -0.04039141535758972, 0.04568043351173401, -0.04303354024887085, 0.034346725791692734, 0.02764241211116314, 0.02947824075818062, -0.019949352368712425, -0.0038840651977807283, -0.03869382664561272, 0.04609159380197525, -0.031136101111769676, 0.025522828102111816, -0.04019375517964363, 0.01808340661227703, 0.027136480435729027, -0.03856179863214493, 0.005238282959908247, 0.03481809422373772, -0.033980220556259155, 0.02335689775645733, 0.03506825491786003, -0.011876112781465054, 0.03215336427092552, 0.037206437438726425, 0.039556171745061874, 0.00429567089304328, -0.02272534929215908, 0.009892088361084461, -0.03352150321006775, -0.04372268542647362, -0.007457524538040161, -0.007256990764290094, 0.024628031998872757, 0.01953490450978279, -0.01333011407405138, -0.03718990087509155, -0.022056980058550835, -0.006605738308280706, -0.020867645740509033, -0.047158557921648026, -0.039955634623765945, 0.043091583997011185, 0.0008452654001303017, -0.037217289209365845, -0.016367942094802856, 0.02404584363102913, -0.0055162133648991585, 0.032032210379838943, 0.03241512179374695, 0.044825226068496704, -0.04072646424174309, 0.020685000345110893, -0.03869687393307686, 0.042175401002168655, 0.04813828691840172, -0.027878010645508766, 0.049195852130651474, 0.014708185568451881, 0.028373241424560547, -0.03504050523042679, 0.01792079769074917, 0.009730780497193336, 0.012228155508637428, 0.0047834101133048534, 0.018389111384749413, -0.011609208770096302, -0.016237426549196243, -0.0064811110496521, -0.026421254500746727, 0.012396442703902721, 0.006193482782691717, 0.018106205388903618, -0.043649401515722275, 0.03096252679824829, 0.0490092895925045, -0.03737860545516014, 0.0415365993976593, 0.014967995695769787, 0.028138328343629837, -0.03196655586361885, -0.005211079027503729, 0.030270105227828026, 0.006303214933723211, 0.03639643266797066, 0.04454320669174194, -0.032588016241788864, 0.016204839572310448, 0.04466598853468895, -0.031364500522613525, -0.004257190506905317, 0.016685014590620995, 0.04424406215548515, 0.010430759750306606, 0.03002157248556614, -0.03952263668179512, -0.03126939758658409, -0.037630435079336166, -0.02182447351515293, -0.016755003482103348, 0.0381934754550457, -0.0351421944797039, -0.000350010406691581, 0.003120970679447055, 0.017591817304491997, -0.013535767793655396, 0.048114847391843796, -0.029377615079283714, -0.015146690420806408, -0.029467064887285233, 0.04075668379664421, 0.010499024763703346, 0.029111940413713455, -0.034878265112638474, -0.04103024676442146, -0.003989506047219038, 0.03346051648259163, -0.03594973310828209, 0.002138882875442505, 0.005963969510048628, -0.00475539593026042, 0.006708168890327215, 0.04701707884669304, 0.03220367059111595, -0.02588384784758091, 0.04933002591133118, 0.0288480706512928, -0.03887871652841568, 0.03961570933461189, -0.04137968644499779, -0.024552810937166214, 0.033412814140319824, 0.0007963895914144814, -0.04929555207490921, 0.03068087063729763, 0.0003748059389181435, -0.036080826073884964, -0.04812517762184143, -0.010899138636887074, 0.0159625057131052, 0.02716009132564068, -0.019240587949752808, 0.0438150055706501, 0.04350052401423454, -0.03677224740386009, 0.043250299990177155, 0.021845746785402298, -0.024804210290312767, -0.02627803198993206, -0.002323150634765625, -0.026767361909151077, -0.024315495043992996, 0.03184017166495323, 0.019948810338974, -0.0410735122859478, 0.013713711872696877, -0.01740594021975994, 0.026581406593322754, -0.002420920180156827, -0.013611400499939919, -0.041544001549482346, 0.03919981047511101, -0.036368440836668015, 0.04307860881090164, -0.016505474224686623, -0.03948871046304703, 0.027269942685961723, -0.04717448353767395, 0.022439951077103615, -0.03866621479392052, -0.04509539529681206, -0.040056731551885605, -0.0007201433181762695, -0.042102571576833725, 0.002486890647560358, 0.028460288420319557, -0.02594282664358616, -0.011437803506851196, 0.024964088574051857, -0.04206589609384537, 0.0075244903564453125, 0.038990505039691925, -0.0033690573181957006, -0.019526083022356033, -0.014984935522079468, -0.04159541800618172, 0.006703042890876532, -0.04159826785326004, -0.0024212957359850407, -0.032780688256025314, -0.011458272114396095, 0.025023067370057106, 0.041575975716114044, 0.04990000277757645, 0.03327731043100357, 0.01612815260887146, -0.019164973869919777, 0.0006179630872793496, 0.047107815742492676, 0.023968929424881935, -0.03850675746798515, 0.014383978210389614, 0.007937908172607422, 0.01675472967326641, 0.010627436451613903, 0.0465984009206295, 0.004662257619202137, -0.027847951278090477, -0.014814657159149647, -0.038852792233228683, 0.04388934373855591, 0.005956745240837336, 0.027513964101672173, -0.042134691029787064, 0.013759076595306396, -0.017721528187394142, -0.027050167322158813, 0.008423501625657082, 0.0005910873296670616, 0.034150268882513046, -0.03407033905386925, -0.02739851549267769, 0.029197830706834793, 0.043730225414037704, 0.0471893846988678, 1.1020899364666548e-05, 0.03198910877108574, -0.026068879291415215, 0.017354583367705345, 0.04635892063379288, -0.03176502510905266, 0.020138079300522804, -0.010264838114380836, 0.04705945774912834, 0.04192886874079704, -0.007763821166008711, -0.002007514238357544, 0.026472652330994606, 0.03388335183262825, 0.007056552451103926, 0.029643727466464043, 0.016742145642638206, 0.04755586385726929, -0.03914685174822807, 0.04327884316444397, -0.02484852634370327, -0.012701011262834072, -0.02101123332977295, 0.043304480612277985, 0.0360870361328125, 0.004445862956345081, 0.021757323294878006, -0.04275840148329735, -0.0025390982627868652, 0.03696347028017044, -0.03553358465433121, -0.0313943512737751, 0.028107166290283203, 0.017880886793136597, -0.020355505868792534, 0.04207785800099373, 0.04521631821990013, -0.04291398078203201, -0.027546191588044167, 0.015285992994904518, 0.0251895971596241, -0.04278605058789253, -0.04306885600090027, -0.042858101427555084, 0.029212523251771927, 0.01822875812649727, 0.021829450502991676, -0.0373397171497345, 0.0011751592392101884, -0.044874705374240875, -0.030232101678848267, -0.047787975519895554, -0.02136889658868313, 0.011770844459533691, 0.016167445108294487, 0.04182054474949837, 0.03987668827176094, -0.01531029399484396, 0.040361739695072174, 0.0047502280212938786, -0.0008143484592437744, 0.005640858318656683, 0.03556526452302933, 0.014872836880385876, 0.02578343264758587, -0.02980904094874859, -0.024000084027647972, 0.02690786123275757, -0.04978383332490921, 0.028753578662872314, 0.029799049720168114, -0.049878936260938644, 0.018973737955093384, -0.0032064260449260473, -0.0477442629635334, 0.00023933649936225265, -0.044266361743211746, 0.008448111824691296, 0.04601595923304558, -0.025049317628145218, -0.04442892223596573, 0.04783020168542862, -0.03695784881711006, -0.043160952627658844, -0.009393555112183094, -0.002862608525902033, -0.02056276798248291, 0.03957556560635567, 0.0035923004616051912, 0.03878508880734444, -0.03147415444254875, -0.039965566247701645, -0.04564288258552551, -0.019585609436035156, 0.0110587477684021], [-0.017192566767334938, 0.006662613246589899, 0.0019014299614354968, -0.006284600589424372, 0.024609465152025223, 0.01293376088142395, 0.03857263922691345, -0.013101535849273205, 0.04805837944149971, -0.04039826616644859, 0.01498506125062704, 0.03991082310676575, -0.00622526416555047, -0.0010663807624951005, -0.005160790868103504, -0.0029342712368816137, -0.018048597499728203, 0.0347464382648468, -0.004005944821983576, -0.030306745320558548, -0.0130069674924016, 0.037307173013687134, 0.036729395389556885, -0.0281561017036438, 0.026203548535704613, -0.002891033887863159, -0.002702862024307251, -0.03330148011445999, 0.027418429031968117, -0.04953252151608467, -0.045016806572675705, -0.031440556049346924, 0.015734022483229637, -0.024017691612243652, 0.007500851061195135, 0.03134077787399292, 0.007292985916137695, -0.01442253589630127, 0.04506826400756836, 0.04163358360528946, -0.009824353270232677, -0.023443002253770828, -0.0031427801586687565, 0.0021577179431915283, -0.025201981887221336, 0.04344531521201134, 0.03129861503839493, -0.036159832030534744, 0.028476739302277565, -0.023732662200927734, 0.039516665041446686, -0.009620714001357555, 0.04236742481589317, -0.03018420934677124, 0.036892082542181015, 0.004285323899239302, -0.04001395031809807, 0.0308164544403553, 0.0028391063679009676, 0.009816288948059082, 0.04879404976963997, 0.010132992640137672, -0.03743138536810875, -0.0055641415528953075, -0.007792449090629816, 0.012960744090378284, -0.0011713624699041247, 0.0001148462324636057, 0.04676635190844536, -0.029222292825579643, 0.03408193588256836, -0.030035322532057762, -0.026715004816651344, -0.048034992069005966, -0.023273468017578125, 0.04561144858598709, 0.009800571016967297, -0.002043741988018155, -0.006170171778649092, -0.03824335336685181, 0.046044494956731796, 0.0106732789427042, -0.016266722232103348, -0.0069779991172254086, -0.027150774374604225, -0.030926192179322243, 0.010941869579255581, 0.026945872232317924, -0.0026824772357940674, -0.04681084305047989, -0.008620060048997402, 0.04726178199052811, 0.003417539643123746, -0.000979989767074585, -0.024214286357164383, 0.014019692316651344, 0.027227390557527542, 0.04890581592917442, 0.03446606546640396, 0.014370346441864967, 0.04816509410738945, -0.02869820035994053, -0.03881891444325447, 0.019620968028903008, -0.0019005656940862536, 0.01956014148890972, -0.004383778665214777, 0.004096645396202803, 0.005808908026665449, 0.012593484483659267, 0.02472924068570137, 0.014039522968232632, -0.047484513372182846, -0.033001430332660675, -0.03641549497842789, -0.03987041115760803, -0.029268205165863037, 0.038546204566955566, 0.044481780380010605, -0.042618900537490845, 0.02759706974029541, 0.03152492642402649, 0.016829639673233032, -0.04720761254429817, 0.026883501559495926, 0.028951747342944145, -0.04114490747451782, 0.03318376466631889, 0.025858759880065918, 0.022406434640288353, 0.005817854311317205, 0.04932234808802605, -0.01845390908420086, 0.008087354712188244, -0.003370648715645075, 0.026195520535111427, 0.0019873082637786865, 0.00302981142885983, 0.009538781829178333, -0.03265870362520218, -0.0063353716395795345, 0.03521459922194481, -0.037476688623428345, -0.04857998713850975, -0.012257170863449574, 0.013799160718917847, -0.04272247105836868, -0.03775342181324959, -0.006062990520149469, -0.002731072949245572, -0.021508997306227684, -0.014023035764694214, 0.031124819070100784, 0.025076139718294144, -0.016891121864318848, -0.0407448410987854, -0.008292662911117077, -0.03868010267615318, -0.022501682862639427, -0.015464532189071178, -0.010350972414016724, 0.01427511591464281, 0.02720850706100464, -0.0174387339502573, 0.003399753710255027, -0.0039604902267456055, -0.04705342650413513, -0.022448111325502396, 0.04281851649284363, 1.4990568161010742e-05, -0.034534722566604614, 0.044758059084415436, 0.004337751772254705, 0.00801128800958395, -0.0008675575372762978, 0.03272883966565132, -0.031399425119161606, 0.04389723762869835, -0.0032032548915594816, -0.028109002858400345, -0.003207474946975708, -0.01647176221013069, -0.044604092836380005, -0.009450447745621204, -0.043342746794223785, 0.043873220682144165, -0.012557935900986195, 0.04317834973335266, -0.014957576990127563, 0.022021276876330376, -0.036906976252794266, -0.023783624172210693, 0.03373118117451668, -0.01494137104600668, 0.01855899766087532, 0.03605460748076439, -0.03877287730574608, 0.03529628738760948, -0.006314909551292658, -0.022441988810896873, -0.040636271238327026, 0.03361879661679268, 0.04309079051017761, -0.0096663236618042, 0.00827364344149828, -0.0031921209301799536, 0.04372953996062279, 0.03899485617876053, -0.04145541414618492, -0.008790671825408936, 0.02586120367050171, -0.017896223813295364, 0.033547818660736084, 0.048770543187856674, 0.03371165320277214, 0.008142644539475441, 0.02040976844727993, 0.015514505095779896, -0.04876900836825371, 0.002493792911991477, 0.008357465267181396, 0.010904693976044655, -0.0008723199716769159, 0.021467089653015137, -0.03268282487988472, 0.025258053094148636, -0.02679172158241272, -0.025707894936203957, 0.005173474550247192, 0.02694789133965969, 0.0016366541385650635, -0.014660626649856567, 0.010396159254014492, -0.007621026132255793, 0.03855159878730774, -0.002685684012249112, -0.024426478892564774, 0.02229217253625393, -0.022989917546510696, -0.01337431650608778, 0.03649570420384407, -0.04430257901549339, -0.019735712558031082, -0.04647665098309517, 0.03648694232106209, -0.04601631686091423, 0.044119417667388916, -0.019136769697070122, -0.01107932347804308, -0.040158629417419434, -0.046149998903274536, -0.02910628914833069, -0.029992764815688133, 0.030207181349396706, 0.018902910873293877, 0.0479857511818409, 0.03468679264187813, -0.008167088031768799, 0.001454210258089006, 0.034571677446365356, -0.04232778772711754, -0.049397051334381104, 0.03162272647023201, -0.006083655636757612, -0.023808782920241356, 0.007150042336434126, 0.011922693811357021, -0.006393265910446644, -0.012669915333390236, 0.00745354313403368, -0.038438476622104645, -0.001522624515928328, 0.042730171233415604, 0.00718993553891778, 0.040976233780384064, 0.041665226221084595, -0.020897645503282547, 0.044547487050294876, -0.007366740610450506, 0.006316465325653553, 0.03893214091658592, -0.03555036708712578, 0.021743912249803543, -0.04877154901623726, -0.014709645882248878, -0.04993168264627457, -0.008517766371369362, -0.009573238901793957, 0.029267042875289917, 0.0008049369207583368, 0.013347476720809937, -0.04012412577867508, 0.03730100020766258, 0.02351279929280281, 0.016472388058900833, 0.024248821660876274, -0.04754563793540001, 0.02432139590382576, -0.006228536367416382, 0.04050762206315994, -0.02814890816807747, -0.01248741801828146, 0.022640598937869072, -0.028880154713988304, -0.046585798263549805, 0.015979958698153496, -0.009387499652802944, 0.013565457426011562, 0.0039588334038853645, 0.040821321308612823, 0.027652282267808914, 0.03998453542590141, 0.03717847540974617, 0.012977111153304577, 0.04249249026179314, 0.02367377281188965, 0.007339513394981623, 0.049033164978027344, 0.026544291526079178, 0.03202718496322632, 0.010736244730651379, 0.003745776368305087, -0.0012259185314178467, 0.04060324653983116, -0.010802149772644043, 0.01701555959880352, 0.0039019703399389982, 0.049601830542087555, -0.013442695140838623, -0.01613944210112095, -0.011020595207810402, -0.017401207238435745, 0.03703014925122261, -0.029947251081466675, -0.027990585193037987, -0.03475505858659744, -0.012281429953873158, -0.022518038749694824, -0.04124368354678154, 0.04153909161686897, 0.021345848217606544, 0.029675757512450218, 0.016382534056901932, 0.04323564097285271, -0.026570428162813187, 0.044091660529375076, -0.0025589109864085913, -0.03761259838938713, -0.03787584230303764, -0.0064008235931396484, -0.03672380372881889, 0.019043589010834694, 0.043807484209537506, -0.0029049457516521215, 0.03193908929824829, -0.02350161038339138, 0.013780605979263783, -0.021372323855757713, 0.03493241220712662, -0.019087160006165504, -0.02409999445080757, -0.02795070968568325, -0.018390923738479614, -0.0031186044216156006, -0.020740939304232597, -0.005927068181335926, 0.01444181241095066, 0.0009025752660818398, -0.024656010791659355, 0.040839701890945435, -0.04559776932001114, 0.0456354133784771, -0.017914628610014915, -0.01705043390393257, 0.03032258152961731, -0.006328403949737549, -0.03695368394255638, 0.000343430059729144, 0.004699528217315674, 0.011180311441421509, -0.007206636946648359, 0.011994815431535244, -0.031004762277007103, 0.04017452523112297, -0.018773598596453667, -0.009667038917541504, -0.048211731016635895, 0.04268088564276695, -0.031137192621827126, 0.03393450006842613, 0.030278826132416725, 0.035267192870378494, -0.024655068293213844, 0.03108237497508526, -0.007116991560906172, 0.02895541861653328, 0.038649190217256546, -0.047649651765823364, -0.015971196815371513, -0.04016891121864319], [0.025480955839157104, 0.022923504933714867, -0.009544027037918568, 0.004263413138687611, -0.04218797758221626, 0.03034353256225586, -0.0098850904032588, 0.037275027483701706, 0.04602300003170967, 0.017026294022798538, -0.04756821319460869, 0.012376911006867886, -0.029657477512955666, -0.01383712887763977, -0.014117139391601086, -0.0046936869621276855, -0.003280902048572898, 0.027384961023926735, -0.011392093263566494, -0.02217225544154644, -0.017692238092422485, -0.006097352597862482, -0.0003438413259573281, 0.019625723361968994, 0.02387012355029583, -0.0014331222046166658, -0.013426351360976696, -0.043868135660886765, 0.04162600636482239, 0.0017166018951684237, -0.013915824703872204, 0.047262515872716904, 0.04605191573500633, 0.009704411029815674, 0.01593930833041668, -0.013426423072814941, -0.038199882954359055, -0.0031536519527435303, 0.046717699617147446, 0.0030440688133239746, -0.04294411092996597, 0.03710928186774254, -0.039375342428684235, 0.004128605127334595, 0.0420994870364666, 0.01245309691876173, 0.018571292981505394, 0.0069577875547111034, 0.00685766339302063, -0.04670095443725586, 0.010606658644974232, -0.041441090404987335, 0.008268052712082863, -0.03150013089179993, 0.02445349097251892, 0.011850601993501186, -0.009076947346329689, 0.0061074732802808285, -0.018035888671875, -0.04378194734454155, -0.04433456063270569, -0.030438615009188652, -0.012699014507234097, 0.03615610674023628, -0.018595708534121513, -0.008805173449218273, 0.004583865404129028, 0.04504474997520447, -0.03186602517962456, 0.010059905238449574, -0.008849168196320534, 0.024132950231432915, 0.015944570302963257, 0.016933059319853783, 0.0023762285709381104, 0.022962862625718117, -0.04389134794473648, 0.005653166677802801, 0.01648048870265484, -0.01174709852784872, -0.028453582897782326, -0.014205741696059704, -0.025170166045427322, 0.0031620978843420744, 0.008267569355666637, 0.041258346289396286, -0.010894996114075184, 0.030495738610625267, -0.019972819834947586, 0.013766092248260975, 0.04542766883969307, -0.007014328148216009, -0.01647370494902134, -0.04567192867398262, 0.046310123056173325, -0.04336687549948692, -0.00887154322117567, -0.038659460842609406, -0.04153870418667793, -0.022641737014055252, 0.02591121196746826, -0.003652209183201194, -0.03578778728842735, -0.02412586845457554, -0.018182093277573586, -0.04284101352095604, 0.019870633259415627, 0.04298404976725578, -0.04542852193117142, 0.0003360271512065083, -0.009347528219223022, -0.04623338580131531, -0.029795318841934204, 0.02542181685566902, 0.031667184084653854, 0.024461079388856888, 0.004507261794060469, 0.008253312669694424, -0.04516270384192467, -0.018909955397248268, -0.0025886239018291235, -0.020871926099061966, 0.02857613004744053, -0.0335584357380867, 0.04732697084546089, 0.02262702025473118, -0.02645532600581646, 0.020012129098176956, 0.021226346492767334, -0.03195676952600479, -0.000612795352935791, -0.03872399404644966, -0.006802493240684271, -0.0463552251458168, -0.0007244408479891717, -0.004715639632195234, -0.0329107828438282, -0.01836603879928589, -0.012704539112746716, -0.016144370660185814, 0.02330722287297249, 0.035435792058706284, 0.046223610639572144, -0.03331651911139488, -0.04347286745905876, 0.022979557514190674, -0.029376452788710594, 0.004668563604354858, 0.004308831878006458, 0.017678499221801758, -0.04926793649792671, 0.02115687169134617, -0.041632961481809616, -0.04969104751944542, 0.004873394966125488, 0.013913166709244251, -0.002643764019012451, 0.0350552462041378, 0.0013329506618902087, -0.00951439794152975, -0.010428756475448608, 0.036962784826755524, -0.011450213380157948, 0.04903678223490715, 0.029058808460831642, -0.02844303846359253, -0.028440309688448906, 0.04356817156076431, -0.027313977479934692, 0.002667248249053955, -0.021151775494217873, 0.013614130206406116, 0.03670620545744896, -0.027072900906205177, 0.023366069421172142, -0.008302658796310425, 0.04099905118346214, 0.023881930857896805, 0.0469718836247921, 0.03299766778945923, 0.033803243190050125, 0.03480348736047745, -0.04367789253592491, -0.015853822231292725, 0.03873034939169884, 0.04024136811494827, -0.02940204180777073, -0.02239092066884041, -0.04087303206324577, -0.04698704555630684, 0.028861237689852715, -0.04284098744392395, -0.01293922122567892, -0.04921023175120354, -0.011088579893112183, -0.013218802399933338, 0.010393119417130947, -9.469390352023765e-05, 0.00828517135232687, -0.02712078206241131, -0.028490006923675537, -0.0418560691177845, 0.0012434720993041992, 0.021646028384566307, -0.023243671283125877, 0.007584911771118641, 0.03134678676724434, 0.04668092727661133, -0.007174152415245771, -0.04712122306227684, 0.011406290344893932, -0.042017221450805664, -0.03029227815568447, 0.002872723387554288, -0.02964792214334011, -0.045418720692396164, 0.028011012822389603, -0.009985881857573986, 0.004858207888901234, 0.04176175221800804, 0.04515780881047249, 0.003455388592556119, -0.03532617911696434, -0.03945517539978027, 0.03663503751158714, 0.031198775395751, 0.0036606669891625643, -0.04866870865225792, 0.03709583356976509, -0.009381121955811977, -0.031852759420871735, -0.022288573905825615, -0.04867550730705261, 0.015404832549393177, 0.015378618612885475, 0.006163269281387329, 0.017928196117281914, -0.007758051156997681, -0.036029186099767685, 0.00647692708298564, -0.024553393945097923, 0.0037480772007256746, -0.013516045175492764, -0.047803860157728195, -0.004456871654838324, -0.03478124737739563, 0.018498485907912254, -0.012221462093293667, -0.03369588777422905, -0.006124693434685469, 0.011476904153823853, 0.04527776315808296, -0.038088489323854446, -0.045249272137880325, 0.018539369106292725, 0.009040254168212414, -0.04081062600016594, -0.009852999821305275, 0.04891468957066536, 0.015451759099960327, 0.02539077401161194, -0.00715826777741313, 0.03925051912665367, -0.017385978251695633, -0.01371688861399889, -0.00838276743888855, -0.0009680092334747314, 0.040046002715826035, 0.014269369654357433, 0.026341771706938744, -0.0037013173568993807, 0.03946668654680252, -0.033736761659383774, -0.002254146384075284, 0.009491401724517345, 0.042041461914777756, -0.014199125580489635, -0.044112611562013626, -0.004572510719299316, -0.013312685303390026, 0.04015921428799629, 0.01461172103881836, 0.0043385266326367855, -0.04221610352396965, 0.0446280799806118, 0.03445865586400032, -0.033255767077207565, -0.006092750933021307, 0.04770863801240921, -0.010863780975341797, -0.03658447414636612, 0.02206605114042759, 0.04803392291069031, -0.0025920213665813208, -0.002872246550396085, 0.005653053522109985, 0.04820156842470169, 0.04894877225160599, -0.040979307144880295, -0.02326839044690132, -0.0007408857345581055, 0.011486298404633999, -0.028805047273635864, -0.004831826779991388, -0.018674885854125023, 0.02418723702430725, 0.04233412817120552, 0.04655247926712036, 0.016494417563080788, 0.021076226606965065, -0.04507027193903923, -0.039324428886175156, 0.004340577404946089, -0.02449060045182705, -0.04252125695347786, 0.02630840614438057, -0.006053519435226917, 0.044552452862262726, -0.02344502881169319, 0.03820977360010147, 0.027862370014190674, -0.0348765067756176, -0.01905806176364422, 0.024160606786608696, -0.048210110515356064, -0.046653132885694504, -0.03104148618876934, -0.01751733385026455, -0.014671528711915016, -0.03847207501530647, -0.03999146446585655, -0.006592709105461836, 0.03383403643965721, -0.01358642615377903, -0.03595376014709473, -0.039934415370225906, 0.01101349014788866, -0.025774866342544556, -0.03022979572415352, 0.025121545419096947, -0.04901024326682091, -0.04233906418085098, 0.044652052223682404, 0.02514934539794922, -0.021434789523482323, 0.006247168872505426, 0.027094721794128418, 0.0320926196873188, -0.00014421940431930125, 0.00922484416514635, -0.0011884033447131515, 0.01456182636320591, 0.016404379159212112, 0.049511052668094635, -0.042838841676712036, 0.015655403956770897, -0.018419433385133743, 0.023929500952363014, -0.045393068343400955, -0.005876696202903986, 0.009269118309020996, 0.003839820623397827, -0.012424456886947155, -0.020043492317199707, -0.010315644554793835, 0.011102313175797462, -0.04693230614066124, 0.01431354321539402, -0.021356642246246338, 0.01356653030961752, 0.0023730099201202393, -0.010585719719529152, 0.008035433478653431, -0.02041873335838318, -0.016431588679552078, 0.02509412169456482, -0.035341598093509674, -0.04859915003180504, -0.005585730075836182, -0.025868160650134087, 0.03223249316215515, -0.03657445311546326, 0.006451702211052179, -0.035263776779174805, 0.02853105030953884, -0.043386250734329224, -0.03465966135263443, 0.04659378528594971, -0.010938286781311035, 0.03150434419512749, 0.02701876126229763, -0.039616066962480545, -0.03383953496813774, 0.033373069018125534, -0.03240964934229851, 0.031438279896974564, 0.0088550029322505, -0.04140610247850418, -0.004284566733986139, 0.03986724093556404], [0.00523798493668437, -0.005362564232200384, -0.03007902018725872, 0.024114275351166725, -0.03261677548289299, 0.030703848227858543, 0.022094596177339554, 0.0014854789478704333, -0.027493102476000786, -0.022136587649583817, 0.04419679567217827, 0.03604095056653023, 0.04893862083554268, -0.032313134521245956, 0.005731421988457441, 0.04484015330672264, 0.019797885790467262, -0.034463610500097275, -0.01701594702899456, 0.03407159075140953, 0.04734966158866882, 0.04087677225470543, 0.020659273490309715, -0.03547840937972069, 0.032975178211927414, -0.0061102150939404964, 0.019649529829621315, 0.011729240417480469, 0.03139159083366394, -0.004023700952529907, -0.044894035905599594, -0.01579262688755989, -0.03429330512881279, -0.011050415225327015, -0.0007296264520846307, -0.02314327470958233, -0.0046707093715667725, 0.04596491530537605, -0.018618840724229813, 0.0015370071632787585, 0.004860300105065107, 0.03414572402834892, 0.0365496389567852, -0.0011371433502063155, -0.019108636304736137, 0.03994438797235489, 0.013086753897368908, -0.025240911170840263, -0.04140053316950798, 0.01554421242326498, -0.04976654052734375, 0.03915521129965782, -0.019709402695298195, 0.04891061410307884, 0.013713980093598366, -0.04507812485098839, -0.044840257614851, 0.03037472441792488, -0.049762409180402756, -0.025270432233810425, -0.004776340909302235, -0.03870752081274986, -0.028872793540358543, -0.00018633008585311472, -0.026378322392702103, -0.0120274368673563, 0.031276900321245193, -0.017945408821105957, 0.020413298159837723, 0.039138395339250565, -0.045722562819719315, -0.043577440083026886, 0.04150086268782616, 0.0038142323028296232, -0.04465324804186821, -0.04969722777605057, 0.03971868380904198, -0.028580958023667336, 0.04777193069458008, 0.02823515608906746, -0.049726005643606186, -0.019225919619202614, -0.03728894144296646, -0.030038489028811455, -0.04711805656552315, -0.03066892735660076, 0.01485911663621664, 0.028019940480589867, 0.033624615520238876, 0.02718581072986126, 0.015609092079102993, 0.019811315461993217, 0.0009136974695138633, 0.03470003232359886, 0.02725883759558201, 0.006495237350463867, 0.038943029940128326, 0.022784030064940453, 0.03516243025660515, 0.042249035090208054, 0.013567603193223476, 0.015303343534469604, 0.03673283010721207, 0.010349380783736706, 0.043623652309179306, -0.002396190306171775, -0.0005826175329275429, 0.0411335825920105, -0.007688898127526045, -0.0057215155102312565, -0.041813191026449203, 0.001963663147762418, 0.041539646685123444, 0.010468358173966408, -0.04459923505783081, 0.040629249066114426, 0.03864366561174393, -0.0299513041973114, 0.013773143291473389, 0.009826547466218472, 0.04208137467503548, 0.049272604286670685, 0.004000973887741566, 0.025520766153931618, -0.042139675468206406, 0.02731066383421421, -0.0467023141682148, -0.02593531645834446, -0.03253550082445145, -0.024676864966750145, -0.012847728095948696, -0.03655712679028511, 0.010313701815903187, -0.012187845073640347, 0.015127569437026978, 0.01230193953961134, 0.004576307721436024, 0.004959976766258478, -0.0498853400349617, -0.027213139459490776, -0.0029129625763744116, -0.019118433818221092, 0.02674352563917637, 0.018564630299806595, 0.04297933727502823, 0.007039886899292469, 0.033078283071517944, -0.022530818358063698, 0.021490169689059258, 0.021862853318452835, -0.0019159018993377686, -0.0473705492913723, -0.013523316942155361, 0.043999046087265015, 0.013168859295547009, -0.024697495624423027, 0.023614102974534035, 0.01414427813142538, 0.03523188456892967, 0.00536611070856452, -0.015425813384354115, 0.04937515780329704, -0.011811154894530773, -0.04326837882399559, 0.029446059837937355, -0.03491958975791931, 0.031764060258865356, 0.01976587250828743, 0.03803855925798416, 0.036275576800107956, 0.02422742359340191, 0.0017143130535259843, 0.04208514839410782, 0.038184888660907745, 0.0035938979126513004, 0.01104853767901659, -0.04219428822398186, 0.04802906513214111, -0.04057380557060242, -0.04696054011583328, 0.0259872917085886, 0.0409034788608551, -0.036857970058918, -0.008316564373672009, -0.02425825037062168, 0.043962180614471436, -0.027285326272249222, -0.0052010538056492805, -0.004937177989631891, -0.0020016550552099943, 0.03114202618598938, 0.03829165920615196, 0.006820339243859053, 0.04876767471432686, 0.04304763674736023, 0.04958193376660347, 0.019864380359649658, -0.02738894894719124, -0.002229416510090232, 0.007809746544808149, 0.038347404450178146, 0.011058032512664795, -0.021549945697188377, -0.04225097969174385, -0.048055149614810944, -0.018275946378707886, 0.011831599287688732, -0.03248105198144913, -0.044804662466049194, 0.042946744710206985, -0.04241378232836723, -0.04944916442036629, 0.027885133400559425, 0.006144172046333551, 0.049093615263700485, -0.03934628888964653, 0.027264732867479324, 0.03482399135828018, -0.04159116372466087, 0.0006708264700137079, 0.02405449189245701, 0.03390345722436905, -0.008966142311692238, 0.011078190989792347, 0.04943741485476494, 0.013681197538971901, 0.012232608161866665, 0.017340272665023804, -0.002703303238376975, 0.002086210297420621, -0.03692362457513809, -0.046374496072530746, -0.0402924120426178, -0.02409646473824978, 0.01565602421760559, -0.043123215436935425, -0.021090317517518997, 0.02104903571307659, -0.048711176961660385, -0.008149325847625732, 0.006230711936950684, 0.021377259865403175, -0.017390770837664604, -0.011054450646042824, -0.005095768254250288, -0.03567041829228401, -0.019133109599351883, 0.01265940722078085, 0.03274443373084068, 0.04484903812408447, 0.04044821485877037, -0.021166158840060234, -0.009173798374831676, 0.03877684473991394, 0.03041263297200203, 0.006527417805045843, -0.030111385509371758, -0.03815450891852379, 0.011240738444030285, 0.013453304767608643, -0.008040333166718483, 0.024730145931243896, -0.009364587254822254, -0.03962897136807442, -0.013939375057816505, 0.038633961230516434, -0.03777308389544487, -0.01623065583407879, 0.023555560037493706, 0.017797643318772316, 0.030909497290849686, -0.03813206031918526, -0.028854507952928543, 0.04219130426645279, -0.018294936046004295, -0.013762706890702248, 0.008692062459886074, -0.024222493171691895, -0.013421428389847279, 0.009709245525300503, -0.011297441087663174, -0.04735777899622917, 0.03721947222948074, -0.033120881766080856, 0.04374494031071663, 0.002456033369526267, -0.032257892191410065, 0.018068289384245872, 0.040784526616334915, 0.0018918634159490466, 0.04291679337620735, -0.004467308521270752, -0.020192457363009453, -0.04373420029878616, 0.03249025344848633, -0.020522011443972588, -0.0014468729496002197, 0.04842307046055794, 0.0064389705657958984, -0.004178041126579046, -0.04931650683283806, 0.02964131347835064, -0.04717012867331505, 0.04974401742219925, 0.027359819039702415, -0.01669135130941868, 0.04372086748480797, -0.010144400410354137, -0.04055998846888542, -0.019916528835892677, 0.004742551129311323, -0.017897581681609154, 0.006341326516121626, -0.030182093381881714, 0.025741582736372948, 0.022605597972869873, 0.026721036061644554, 0.04344778135418892, -0.0224569384008646, -0.03078596666455269, 0.043977655470371246, 0.02192934788763523, 0.03750899061560631, -0.034530192613601685, -0.04806552082300186, -0.044106561690568924, -0.04621179774403572, 0.032797254621982574, -0.01884579099714756, 0.02647680602967739, 0.027215683832764626, 0.04040247201919556, -0.03342350199818611, -0.02762932889163494, -0.04261065274477005, -0.03824390843510628, 0.01798366941511631, 0.04007160663604736, -0.02774800732731819, -0.013400077819824219, 0.04688026383519173, -0.021669840440154076, 0.019741250202059746, -0.034223008900880814, 0.03736299276351929, -0.009156763553619385, -0.0027901947032660246, 0.03326869755983353, -0.015739096328616142, 0.03653174266219139, -0.022885853424668312, 0.013561206869781017, -0.04806053638458252, 0.0035220147110521793, -0.0019163191318511963, 0.02105535939335823, 0.011457830667495728, 0.026951218023896217, -0.00852967519313097, 0.0010762691963464022, -0.028247660025954247, 0.04018884524703026, -0.041827570647001266, 0.03529060631990433, 0.04163080081343651, 0.00622403621673584, -0.016050590202212334, 0.00258619780652225, -0.03305194526910782, 0.03490723296999931, 0.038603998720645905, -0.03166011720895767, 0.016125483438372612, -0.01050376333296299, -0.002678477903828025, -0.036544300615787506, -0.023552073165774345, -0.021859634667634964, 0.021532177925109863, -0.009828305803239346, -0.04993654042482376, 0.048474449664354324, -0.0016554296016693115, 0.013560879044234753, 0.030220497399568558, -0.009229570627212524, 0.041982490569353104, -0.02592187561094761, -0.038546569645404816, 0.026392890140414238, 0.02897268533706665, -0.0033475160598754883, 0.0156273003667593, 0.019691282883286476, -0.014218181371688843, -0.048559077084064484, 0.011382758617401123, 0.001206052373163402, -0.014882571063935757, 0.020184267312288284], [-0.03998170047998428, 0.03475237637758255, -0.047992777079343796, -0.032176800072193146, 0.044815897941589355, 0.026947880163788795, 0.03804478049278259, -0.002633553696796298, -0.0436856709420681, 0.021864378824830055, -0.0415906086564064, 0.022140031680464745, -0.04791377857327461, -0.042607732117176056, -0.033831119537353516, -0.003318315837532282, 0.03695154935121536, -0.014463025145232677, -0.0456034354865551, -0.03517219051718712, 0.01888946257531643, -0.035716909915208817, 0.0010824919445440173, -0.01655864156782627, -0.02586217038333416, 0.011441946029663086, -0.02467002347111702, 0.017633074894547462, -0.0190134234726429, -0.0050490559078752995, -0.008180725388228893, 0.03448277711868286, 0.022232472896575928, -0.0009366810554638505, -0.04230465367436409, -0.00775721063837409, 0.031866591423749924, 0.0225451048463583, -0.03302185609936714, 0.02110046148300171, 0.031918030232191086, -0.013181698508560658, -0.008646482601761818, 0.04931988939642906, 0.004641622304916382, -0.009636545553803444, -0.012430357746779919, -0.002469778060913086, -0.046124983578920364, 0.012989223003387451, -0.0047772289253771305, -0.004477840848267078, -0.04830676317214966, -0.036755770444869995, 0.035967350006103516, -0.006917077582329512, -0.028726661577820778, 0.02916005812585354, -0.03622433543205261, 0.009022277779877186, -0.013860988430678844, 0.04316404089331627, -0.00882875919342041, -0.017756521701812744, 0.02745373360812664, 0.030989481136202812, -0.049223750829696655, 0.010856658220291138, 0.047721780836582184, -0.046467460691928864, 0.01871376670897007, 0.014819723553955555, 0.0254500862210989, -0.018512004986405373, -0.0007131219026632607, 0.0027916969265788794, -0.040374141186475754, 0.006519496440887451, -0.00871496181935072, -0.00869029201567173, -0.0004072725714650005, -0.037673916667699814, 0.023349588736891747, -0.006236362736672163, -0.034907616674900055, 0.04503408074378967, 0.015644008293747902, -0.03739332780241966, -0.00024074912653304636, -0.014685893431305885, -0.01692250370979309, 0.030358893796801567, 0.00982006173580885, 0.049819089472293854, -0.011453700251877308, 0.005541396327316761, 0.028843635693192482, 0.025176508352160454, 0.0437697172164917, 0.022468913346529007, 0.010648376308381557, -0.00040478110895492136, -0.0023672045208513737, -0.02887837402522564, 0.018518418073654175, -0.023057783022522926, 0.011702579446136951, -0.03756152465939522, 0.02883373573422432, -0.04684014990925789, -0.00024875401868484914, 0.03717364743351936, -0.04125563055276871, -0.03581449016928673, 0.007781356573104858, 0.017931807786226273, -0.042696595191955566, 0.014791465364396572, 0.04614363983273506, 0.035605330020189285, -0.046954672783613205, 0.049664247781038284, -0.0008499860996380448, 0.01615719310939312, -0.01083558239042759, -0.016242563724517822, -0.045149534940719604, 0.038603782653808594, -0.012321794405579567, 0.008975088596343994, 0.03891957551240921, -0.014385426416993141, -0.035163309425115585, -0.020010769367218018, 0.0019337832927703857, -0.04955163598060608, 0.008842396549880505, 0.018864357843995094, 0.02751358225941658, -0.04765213280916214, 0.0342499278485775, -0.01335097011178732, -0.011410946026444435, -0.011058581061661243, 0.03492347523570061, -0.03767772391438484, 0.009367275051772594, -0.029742999002337456, -0.034155648201704025, -0.03219292685389519, -0.010871732607483864, -0.031892117112874985, 0.037081506103277206, 0.0029980838298797607, 0.030060112476348877, -0.025843603536486626, -0.027936160564422607, -0.021942216902971268, -0.04052912816405296, 0.0013954461319372058, -0.04927549883723259, 0.04330117255449295, -0.0009353399509564042, 0.04133880138397217, -0.01212763786315918, -0.04817435145378113, 0.0017272413242608309, -0.022758042439818382, -0.023327136412262917, 0.04343152791261673, 0.02588062360882759, -0.04374740272760391, -0.049268659204244614, 0.04442894086241722, 0.020775234326720238, 0.015450626611709595, 0.045330267399549484, -0.04714410379528999, -0.04072137549519539, -0.03716985508799553, -0.025315124541521072, 0.04650009423494339, -0.017154723405838013, -0.01911621168255806, -0.046630002558231354, 0.007973742671310902, -0.02024833671748638, -0.007511264178901911, -0.03269996866583824, -0.002602195832878351, 0.04319227859377861, 0.040270186960697174, 0.0007700920104980469, -0.041864585131406784, 0.026052450761198997, -0.04854941368103027, 0.01134595274925232, 0.04937092587351799, -0.04436061531305313, 0.003881782293319702, 0.03634461387991905, -0.04843072220683098, -0.04061860591173172, 0.04699939489364624, 0.04273905232548714, -0.021930819377303123, -0.017232084646821022, -0.03136895224452019, -0.037717271596193314, 0.007897752337157726, 0.04948897287249565, -0.018846726045012474, -0.04331272467970848, -0.034919094294309616, -0.039356525987386703, -0.00028135182219557464, 0.011908942833542824, -0.016944831237196922, -0.0348629429936409, -0.044124018400907516, 0.023578334599733353, 0.0467187725007534, 0.0344526432454586, 0.006462848279625177, 0.04358702525496483, 0.01735558547079563, 0.0013736725086346269, 0.048143088817596436, 0.0032445669639855623, 0.04384161904454231, 0.00022094250016380101, -0.019660746678709984, -0.012284374795854092, 0.012836652807891369, -0.00444219121709466, -0.007832926698029041, 0.034454286098480225, 0.003732359502464533, 0.04898766800761223, 0.021886229515075684, -0.01960914209485054, -0.01907641999423504, 0.02001028135418892, -0.04186708852648735, -0.02479996718466282, 0.024131430312991142, -0.021772777661681175, -0.013431168161332607, -0.026217132806777954, -0.010802221484482288, -0.004796725697815418, -0.0253350380808115, 0.03300083801150322, 0.029488926753401756, 0.005946123506873846, 0.032559361308813095, -0.010630584321916103, 0.0045930505730211735, -0.03833392262458801, -0.02831452526152134, 0.022526627406477928, 0.014979821629822254, -0.012384778819978237, 0.012182063423097134, 0.010343956761062145, -0.03274054080247879, 0.003110909601673484, -0.014482188038527966, 0.01722586154937744, 0.022342616692185402, -0.002279615495353937, -0.0037074268329888582, -0.024041300639510155, -0.009550022892653942, -0.012633728794753551, 0.021125895902514458, -0.007940173149108887, 0.018041783943772316, -0.015083259902894497, 0.031155413016676903, 0.01207953691482544, 0.04942843317985535, -0.042372461408376694, 0.031842269003391266, 0.0005496740341186523, 0.017880624160170555, 0.024068469181656837, -0.04500145465135574, 0.023802930489182472, 0.015030127950012684, -0.01890355907380581, 0.029865687713027, 0.014052892103791237, 0.018216241151094437, -0.006425756495445967, -0.004453820176422596, -0.01629009284079075, -0.014843207783997059, -0.03704243525862694, 0.011709541082382202, 0.020200444385409355, -0.0031530738342553377, -0.04004350304603577, -0.04634055122733116, 